{"learner":{"attributes":{"scikit_learn":"{\"_estimator_type\": \"classifier\"}"},"feature_names":["rainfall_mm_total_14d","rainfall_mm_latest","temperature_c_mean","ndvi","rainfall_anomaly","wash_score","water_access_proxy","sanitation_proxy","hygiene_proxy","wash_trend","mobility_score","border_crossing_proxy","market_activity_proxy","population_movement_proxy","mobility_trend","health_capacity_score","beds_proxy","health_workers_proxy","supply_proxy","capacity_trend","data_quality_score","reporting_completeness","reporting_timeliness","source_agreement","quality_trend"],"feature_types":["float","float","float","float","float","float","float","float","float","float","float","float","float","float","float","float","float","float","float","float","float","float","float","float","float"],"gradient_booster":{"model":{"gbtree_model_param":{"num_parallel_tree":"1","num_trees":"200"},"iteration_indptr":[0,1,2,3,4,5,6,7,8,9,10,11,12,13,14,15,16,17,18,19,20,21,22,23,24,25,26,27,28,29,30,31,32,33,34,35,36,37,38,39,40,41,42,43,44,45,46,47,48,49,50,51,52,53,54,55,56,57,58,59,60,61,62,63,64,65,66,67,68,69,70,71,72,73,74,75,76,77,78,79,80,81,82,83,84,85,86,87,88,89,90,91,92,93,94,95,96,97,98,99,100,101,102,103,104,105,106,107,108,109,110,111,112,113,114,115,116,117,118,119,120,121,122,123,124,125,126,127,128,129,130,131,132,133,134,135,136,137,138,139,140,141,142,143,144,145,146,147,148,149,150,151,152,153,154,155,156,157,158,159,160,161,162,163,164,165,166,167,168,169,170,171,172,173,174,175,176,177,178,179,180,181,182,183,184,185,186,187,188,189,190,191,192,193,194,195,196,197,198,199,200],"tree_info":[0,0,0,0,0,0,0,0,0,0,0,0,0,0,0,0,0,0,0,0,0,0,0,0,0,0,0,0,0,0,0,0,0,0,0,0,0,0,0,0,0,0,0,0,0,0,0,0,0,0,0,0,0,0,0,0,0,0,0,0,0,0,0,0,0,0,0,0,0,0,0,0,0,0,0,0,0,0,0,0,0,0,0,0,0,0,0,0,0,0,0,0,0,0,0,0,0,0,0,0,0,0,0,0,0,0,0,0,0,0,0,0,0,0,0,0,0,0,0,0,0,0,0,0,0,0,0,0,0,0,0,0,0,0,0,0,0,0,0,0,0,0,0,0,0,0,0,0,0,0,0,0,0,0,0,0,0,0,0,0,0,0,0,0,0,0,0,0,0,0,0,0,0,0,0,0,0,0,0,0,0,0,0,0,0,0,0,0,0,0,0,0,0,0,0,0,0,0,0,0],"trees":[{"base_weights":[-7.189677E-3,-7.7831763E-1,8.046201E-1,-9.5304626E-1,2.2517045E-1,1.1576746E0,1.8122408E-1,-6.1589915E-1,-1.4169648E0,-5.007962E-1,6.2791693E-1,5.507009E-1,1.3885365E0,-2.0577379E-1,6.413139E-1,-5.1310826E-2,-1.12002E-2,-7.49821E-2,-3.9252046E-2,-4.4919882E-2,3.0793166E-2,6.0153067E-2,3.841399E-3,5.068493E-2,2.931099E-3,2.8386204E-2,7.613567E-2,1.3694127E-2,-2.9485514E-2,1.3812541E-2,6.897676E-2],"categories":[],"categories_nodes":[],"categories_segments":[],"categories_sizes":[],"default_left":[0,0,0,0,0,0,0,0,0,0,0,0,0,0,0,0,0,0,0,0,0,0,0,0,0,0,0,0,0,0,0],"id":0,"left_children":[1,3,5,7,9,11,13,15,17,19,21,23,25,27,29,-1,-1,-1,-1,-1,-1,-1,-1,-1,-1,-1,-1,-1,-1,-1,-1],"loss_changes":[4.9562927E2,7.14077E1,8.467882E1,5.3246277E1,1.8156483E1,3.371414E1,2.5173622E1,3.227652E1,6.3908997E0,1.0467747E1,1.2488403E1,1.5764908E1,1.8695038E1,1.4368395E1,1.700033E1,0E0,0E0,0E0,0E0,0E0,0E0,0E0,0E0,0E0,0E0,0E0,0E0,0E0,0E0,0E0,0E0],"parents":[2147483647,0,0,1,1,2,2,3,3,4,4,5,5,6,6,7,7,8,8,9,9,10,10,11,11,12,12,13,13,14,14],"right_children":[2,4,6,8,10,12,14,16,18,20,22,24,26,28,30,-1,-1,-1,-1,-1,-1,-1,-1,-1,-1,-1,-1,-1,-1,-1,-1],"split_conditions":[1.00635704E2,6.970524E-1,6.376317E-1,6.122976E-1,4.1325966E1,1.25365E2,4.376386E-2,4.438013E1,8.8788574E1,7.385832E-1,5.0243163E-1,5.2523077E-1,1.3747638E-1,4.4403592E-1,7.044667E-1,-5.1310826E-2,-1.12002E-2,-7.49821E-2,-3.9252046E-2,-4.4919882E-2,3.0793166E-2,6.0153067E-2,3.841399E-3,5.068493E-2,2.931099E-3,2.8386204E-2,7.613567E-2,1.3694127E-2,-2.9485514E-2,1.3812541E-2,6.897676E-2],"split_indices":[0,4,5,5,0,0,4,0,0,10,15,15,10,20,10,0,0,0,0,0,0,0,0,0,0,0,0,0,0,0,0],"split_type":[0,0,0,0,0,0,0,0,0,0,0,0,0,0,0,0,0,0,0,0,0,0,0,0,0,0,0,0,0,0,0],"sum_hessian":[7.89728E2,4.0503323E2,3.8469476E2,3.4500995E2,6.0023296E1,2.4505379E2,1.3964098E2,2.0115245E2,1.4385748E2,2.1330593E1,3.8692703E1,6.845632E1,1.7659747E2,7.6145256E1,6.349572E1,9.747585E1,1.03676605E2,1.2599932E2,1.7858171E1,1.587393E1,5.4566636E0,1.835423E1,2.0338472E1,3.472422E1,3.37321E1,2.5547106E1,1.5105037E2,3.3980133E1,4.2165127E1,4.3405277E1,2.0090443E1],"tree_param":{"num_deleted":"0","num_feature":"25","num_nodes":"31","size_leaf_vector":"1"}},{"base_weights":[2.8046373E-2,2.4472785E-1,-3.2221496E-1,9.230176E-2,6.702352E-1,-6.2095004E-1,-4.131135E-2,2.5035325E-1,-1.6642481E-1,-1.3731419E-1,8.0842084E-1,-1.208619E0,-5.28558E-1,-3.7815276E-1,1.1322143E-1,1.7251238E-2,-7.596732E-3,-2.7874632E-2,-4.2974026E-4,-3.423021E-2,1.6317485E-2,4.7018155E-2,1.4061413E-3,-7.018805E-2,-5.0250026E-3,-3.959482E-3,-3.1190071E-2,-4.261742E-2,2.0363568E-3,-1.8209277E-3,3.0241434E-2],"categories":[],"categories_nodes":[],"categories_segments":[],"categories_sizes":[],"default_left":[0,0,0,0,0,0,0,0,0,0,0,0,0,0,0,0,0,0,0,0,0,0,0,0,0,0,0,0,0,0,0],"id":1,"left_children":[1,3,5,7,9,11,13,15,17,19,21,23,25,27,29,-1,-1,-1,-1,-1,-1,-1,-1,-1,-1,-1,-1,-1,-1,-1,-1],"loss_changes":[6.0614895E1,3.1935928E1,2.5592075E1,1.494237E1,1.46131935E1,7.390053E0,8.288353E0,8.682718E0,8.561373E0,5.2588787E0,1.1413231E1,4.0350704E0,5.4956894E0,9.975767E0,8.066897E0,0E0,0E0,0E0,0E0,0E0,0E0,0E0,0E0,0E0,0E0,0E0,0E0,0E0,0E0,0E0,0E0],"parents":[2147483647,0,0,1,1,2,2,3,3,4,4,5,5,6,6,7,7,8,8,9,9,10,10,11,11,12,12,13,13,14,14],"right_children":[2,4,6,8,10,12,14,16,18,20,22,24,26,28,30,-1,-1,-1,-1,-1,-1,-1,-1,-1,-1,-1,-1,-1,-1,-1,-1],"split_conditions":[6.232646E-1,7.385832E-1,4.7212183E-1,6.41903E-1,-6.855643E-1,5.3379845E-2,3.146633E-1,8.2810175E-1,2.6715493E-1,5.0812334E-1,8.756457E-1,7.5023603E-1,1.7084588E-1,7.324912E-1,3.1479204E1,1.7251238E-2,-7.596732E-3,-2.7874632E-2,-4.2974026E-4,-3.423021E-2,1.6317485E-2,4.7018155E-2,1.4061413E-3,-7.018805E-2,-5.0250026E-3,-3.959482E-3,-3.1190071E-2,-4.261742E-2,2.0363568E-3,-1.8209277E-3,3.0241434E-2],"split_indices":[15,10,10,20,14,10,6,3,16,7,12,21,20,10,1,0,0,0,0,0,0,0,0,0,0,0,0,0,0,0,0],"split_type":[0,0,0,0,0,0,0,0,0,0,0,0,0,0,0,0,0,0,0,0,0,0,0,0,0,0,0,0,0,0,0],"sum_hessian":[7.966273E2,4.9234824E2,3.042791E2,3.6339066E2,1.2895758E2,1.4687263E2,1.5740648E2,2.2560495E2,1.377857E2,1.88435E1,1.1011409E2,1.8312517E1,1.285601E2,4.9047836E1,1.08358635E2,1.827421E2,4.2862865E1,3.8890762E1,9.8894936E1,8.423836E0,1.0419663E1,9.401223E1,1.6101862E1,1.5343668E1,2.968849E0,2.2803278E1,1.05756836E2,2.2519577E1,2.652826E1,8.3782166E1,2.4576473E1],"tree_param":{"num_deleted":"0","num_feature":"25","num_nodes":"31","size_leaf_vector":"1"}},{"base_weights":[6.0771834E-3,-7.146245E-1,7.1727663E-1,-2.8896472E-1,-1.1122209E0,1.1985635E0,3.4507534E-1,-8.1689185E-1,1.3473454E-1,-1.2397318E0,-2.454781E-1,7.915556E-1,1.5010974E0,3.7772305E-2,9.336087E-1,5.3086735E-2,-4.5459915E-2,-3.2820397E-3,5.85435E-2,-6.542794E-2,-3.29577E-2,-3.8563933E-2,3.9345857E-2,1.00522665E-2,5.8395244E-2,4.4895884E-2,8.032834E-2,-1.9215217E-2,1.9216863E-2,3.0081129E-2,7.8240275E-2],"categories":[],"categories_nodes":[],"categories_segments":[],"categories_sizes":[],"default_left":[0,0,0,0,0,0,0,0,0,0,0,0,0,0,0,0,0,0,0,0,0,0,0,0,0,0,0,0,0,0,0],"id":2,"left_children":[1,3,5,7,9,11,13,15,17,19,21,23,25,27,29,-1,-1,-1,-1,-1,-1,-1,-1,-1,-1,-1,-1,-1,-1,-1,-1],"loss_changes":[4.0626825E2,6.630618E1,7.1050156E1,4.294154E1,2.215332E1,2.0184067E1,4.090503E1,1.5773968E1,2.2309702E1,6.2060547E0,1.5430136E1,1.6682423E1,4.820389E0,2.2053753E1,1.5321541E1,0E0,0E0,0E0,0E0,0E0,0E0,0E0,0E0,0E0,0E0,0E0,0E0,0E0,0E0,0E0,0E0],"parents":[2147483647,0,0,1,1,2,2,3,3,4,4,5,5,6,6,7,7,8,8,9,9,10,10,11,11,12,12,13,13,14,14],"right_children":[2,4,6,8,10,12,14,16,18,20,22,24,26,28,30,-1,-1,-1,-1,-1,-1,-1,-1,-1,-1,-1,-1,-1,-1,-1,-1],"split_conditions":[1.00635704E2,5.130956E-1,4.220044E-1,4.3035656E1,6.8999517E-1,4.1271573E-1,2.7926505E-1,2.676154E-2,7.310754E-1,9.013869E1,6.886285E-1,-1.181985E-1,1.1652887E2,1.4483833E2,1.6994604E2,5.3086735E-2,-4.5459915E-2,-3.2820397E-3,5.85435E-2,-6.542794E-2,-3.29577E-2,-3.8563933E-2,3.9345857E-2,1.00522665E-2,5.8395244E-2,4.4895884E-2,8.032834E-2,-1.9215217E-2,1.9216863E-2,3.0081129E-2,7.8240275E-2],"split_indices":[0,5,5,0,4,10,4,20,4,0,10,4,0,0,0,0,0,0,0,0,0,0,0,0,0,0,0,0,0,0,0],"split_type":[0,0,0,0,0,0,0,0,0,0,0,0,0,0,0,0,0,0,0,0,0,0,0,0,0,0,0,0,0,0,0],"sum_hessian":[7.906216E2,3.926851E2,3.9793652E2,1.9048349E2,2.0220158E2,1.7256961E2,2.2536691E2,8.439711E1,1.0608638E2,1.7589452E2,2.6307068E1,7.512207E1,9.744755E1,1.4875735E2,7.660955E1,3.4607806E0,8.093633E1,8.968005E1,1.6406326E1,1.5613141E2,1.9763115E1,1.7597538E1,8.709531E0,2.983839E1,4.528368E1,1.5919168E1,8.152837E1,6.702258E1,8.173477E1,5.1484016E1,2.5125536E1],"tree_param":{"num_deleted":"0","num_feature":"25","num_nodes":"31","size_leaf_vector":"1"}},{"base_weights":[2.2401474E-2,-6.9983315E-1,6.773346E-1,-2.855779E-1,-1.1231539E0,9.4665265E-1,-4.3799456E-2,-7.1430886E-1,8.102223E-2,-1.2753516E0,-5.07074E-1,6.696238E-1,1.3132085E0,-5.565449E-1,3.9049897E-1,-4.921029E-2,-1.2875453E-2,2.4756024E-2,-1.6582355E-2,-3.897607E-2,-6.794122E-2,-6.174789E-2,-3.2058794E-3,1.8555198E-2,5.3263612E-2,3.2814667E-2,7.3199295E-2,-5.2426428E-2,1.1272427E-3,7.053533E-2,1.2854946E-2],"categories":[],"categories_nodes":[],"categories_segments":[],"categories_sizes":[],"default_left":[0,0,0,0,0,0,0,0,0,0,0,0,0,0,0,0,0,0,0,0,0,0,0,0,0,0,0,0,0,0,0],"id":3,"left_children":[1,3,5,7,9,11,13,15,17,19,21,23,25,27,29,-1,-1,-1,-1,-1,-1,-1,-1,-1,-1,-1,-1,-1,-1,-1,-1],"loss_changes":[3.7419595E2,6.565573E1,8.061244E1,3.0155092E1,1.676915E1,2.9797272E1,2.5550133E1,1.0641331E1,1.7957386E1,5.0779114E0,1.2319513E1,2.0167381E1,1.1815933E1,1.5004162E1,8.0997095E0,0E0,0E0,0E0,0E0,0E0,0E0,0E0,0E0,0E0,0E0,0E0,0E0,0E0,0E0,0E0,0E0],"parents":[2147483647,0,0,1,1,2,2,3,3,4,4,5,5,6,6,7,7,8,8,9,9,10,10,11,11,12,12,13,13,14,14],"right_children":[2,4,6,8,10,12,14,16,18,20,22,24,26,28,30,-1,-1,-1,-1,-1,-1,-1,-1,-1,-1,-1,-1,-1,-1,-1,-1],"split_conditions":[9.6842705E1,5.2717984E-1,7.262131E-1,4.3035656E1,5.561824E-1,1.4045912E-1,1.4920285E2,3.1272987E-1,5.195729E-1,1.640774E-1,4.1952133E1,1.5476996E2,1.1652887E2,-1.5221893E-2,3.6047297E0,-4.921029E-2,-1.2875453E-2,2.4756024E-2,-1.6582355E-2,-3.897607E-2,-6.794122E-2,-6.174789E-2,-3.2058794E-3,1.8555198E-2,5.3263612E-2,3.2814667E-2,7.3199295E-2,-5.2426428E-2,1.1272427E-3,7.053533E-2,1.2854946E-2],"split_indices":[0,5,5,0,4,4,0,4,15,12,0,0,0,4,1,0,0,0,0,0,0,0,0,0,0,0,0,0,0,0,0],"split_type":[0,0,0,0,0,0,0,0,0,0,0,0,0,0,0,0,0,0,0,0,0,0,0,0,0,0,0,0,0,0,0],"sum_hessian":[7.890841E2,3.752284E2,4.138557E2,1.904912E2,1.8473718E2,3.0109476E2,1.12760956E2,8.7367874E1,1.0312332E2,1.4728217E2,3.745501E1,1.7309955E2,1.27995224E2,5.15812E1,6.1179756E1,5.4193478E1,3.31744E1,5.137282E1,5.1750504E1,2.2711855E1,1.2457032E2,1.3493672E1,2.3961338E1,9.976445E1,7.33351E1,2.4892973E1,1.0310225E2,2.7449759E1,2.4131443E1,5.967431E0,5.5212322E1],"tree_param":{"num_deleted":"0","num_feature":"25","num_nodes":"31","size_leaf_vector":"1"}},{"base_weights":[5.900947E-3,-6.592021E-1,6.2295455E-1,-9.6611446E-1,-1.9747914E-1,3.4658816E-1,1.0604949E0,-7.465918E-1,-1.314778E0,-7.5540334E-1,1.48604E-1,6.530528E-1,-9.183619E-2,3.9183146E-1,1.1887044E0,-4.9440283E-2,-1.1350062E-2,-3.0608654E-2,-6.880456E-2,-1.29343E-2,-4.9339492E-2,-5.4743923E-3,2.8595734E-2,1.7018903E-2,5.2106787E-2,-3.1424697E-2,1.4812193E-2,3.2969963E-2,-2.7687848E-2,6.268666E-2,1.0124812E-3],"categories":[],"categories_nodes":[],"categories_segments":[],"categories_sizes":[],"default_left":[0,0,0,0,0,0,0,0,0,0,0,0,0,0,0,0,0,0,0,0,0,0,0,0,0,0,0,0,0,0,0],"id":4,"left_children":[1,3,5,7,9,11,13,15,17,19,21,23,25,27,29,-1,-1,-1,-1,-1,-1,-1,-1,-1,-1,-1,-1,-1,-1,-1,-1],"loss_changes":[3.2444662E2,5.3724747E1,4.9220535E1,1.6491776E1,2.968872E1,3.4029152E1,1.3102219E1,1.769735E1,2.9006348E0,6.5034103E0,1.0482174E1,1.7763172E1,2.2031723E1,7.1850686E0,1.0027985E1,0E0,0E0,0E0,0E0,0E0,0E0,0E0,0E0,0E0,0E0,0E0,0E0,0E0,0E0,0E0,0E0],"parents":[2147483647,0,0,1,1,2,2,3,3,4,4,5,5,6,6,7,7,8,8,9,9,10,10,11,11,12,12,13,13,14,14],"right_children":[2,4,6,8,10,12,14,16,18,20,22,24,26,28,30,-1,-1,-1,-1,-1,-1,-1,-1,-1,-1,-1,-1,-1,-1,-1,-1],"split_conditions":[9.796485E1,2.1242669E-1,2.3328964E-1,6.232646E-1,3.7543186E1,5.890561E-1,1.6694295E-1,6.737406E-1,8.420577E-2,-3.4023535E-1,7.0207113E-1,1.5476996E2,1.4017621E2,5.724648E-1,9.4762075E-1,-4.9440283E-2,-1.1350062E-2,-3.0608654E-2,-6.880456E-2,-1.29343E-2,-4.9339492E-2,-5.4743923E-3,2.8595734E-2,1.7018903E-2,5.2106787E-2,-3.1424697E-2,1.4812193E-2,3.2969963E-2,-2.7687848E-2,6.268666E-2,1.0124812E-3],"split_indices":[0,4,4,15,0,15,10,10,22,24,4,0,0,24,8,0,0,0,0,0,0,0,0,0,0,0,0,0,0,0,0],"split_type":[0,0,0,0,0,0,0,0,0,0,0,0,0,0,0,0,0,0,0,0,0,0,0,0,0,0,0,0,0,0,0],"sum_hessian":[7.8855316E2,3.79468E2,4.0908517E2,2.2729205E2,1.5217595E2,2.5181917E2,1.57266E2,1.4140382E2,8.588822E1,5.7805077E1,9.437087E1,1.4792677E2,1.0389239E2,2.5955261E1,1.3131075E2,9.58289E1,4.5574932E1,7.7751412E0,7.811308E1,1.9043144E1,3.8761932E1,5.9086983E1,3.528389E1,8.305608E1,6.48707E1,4.334001E1,6.0552372E1,2.04666E1,5.48866E0,1.2431897E2,6.9917784E0],"tree_param":{"num_deleted":"0","num_feature":"25","num_nodes":"31","size_leaf_vector":"1"}},{"base_weights":[-9.967712E-3,-7.4181724E-1,5.416587E-1,-1.0488315E0,-5.008795E-1,2.9803345E-1,8.841721E-1,-1.1993287E0,-5.634857E-1,-2.0546709E-1,-7.758835E-1,4.6464157E-1,-4.525859E-1,1.1204659E0,5.4821527E-1,-6.1979454E-2,4.273811E-3,-4.5277057E-3,-4.9624126E-2,-2.2968648E-2,1.345312E-2,-2.105353E-2,-4.7516815E-2,1.5911572E-2,4.436536E-2,1.9369503E-2,-3.7093222E-2,7.4563846E-2,3.881017E-2,-5.4017056E-2,3.3591524E-2],"categories":[],"categories_nodes":[],"categories_segments":[],"categories_sizes":[],"default_left":[0,0,0,0,0,0,0,0,0,0,0,0,0,0,0,0,0,0,0,0,0,0,0,0,0,0,0,0,0,0,0],"id":5,"left_children":[1,3,5,7,9,11,13,15,17,19,21,23,25,27,29,-1,-1,-1,-1,-1,-1,-1,-1,-1,-1,-1,-1,-1,-1,-1,-1],"loss_changes":[3.2004553E2,2.4677994E1,3.7457977E1,1.0200455E1,1.5504906E1,3.343453E1,1.4261185E1,5.9393005E0,7.4432096E0,1.1487707E1,5.7585335E0,1.3202122E1,1.2136249E1,1.2763626E1,1.669666E1,0E0,0E0,0E0,0E0,0E0,0E0,0E0,0E0,0E0,0E0,0E0,0E0,0E0,0E0,0E0,0E0],"parents":[2147483647,0,0,1,1,2,2,3,3,4,4,5,5,6,6,7,7,8,8,9,9,10,10,11,11,12,12,13,13,14,14],"right_children":[2,4,6,8,10,12,14,16,18,20,22,24,26,28,30,-1,-1,-1,-1,-1,-1,-1,-1,-1,-1,-1,-1,-1,-1,-1,-1],"split_conditions":[8.8788574E1,3.7543186E1,1.5476996E2,7.430177E-1,5.195729E-1,8.31686E-1,5.890561E-1,9.622923E-1,8.71889E-1,6.737406E-1,3.5349336E-1,7.5005627E-1,2.2451577E-1,4.7366348E-1,5.3379845E-2,-6.1979454E-2,4.273811E-3,-4.5277057E-3,-4.9624126E-2,-2.2968648E-2,1.345312E-2,-2.105353E-2,-4.7516815E-2,1.5911572E-2,4.436536E-2,1.9369503E-2,-3.7093222E-2,7.4563846E-2,3.881017E-2,-5.4017056E-2,3.3591524E-2],"split_indices":[0,0,0,10,15,15,15,22,10,10,20,10,20,20,10,0,0,0,0,0,0,0,0,0,0,0,0,0,0,0,0],"split_type":[0,0,0,0,0,0,0,0,0,0,0,0,0,0,0,0,0,0,0,0,0,0,0,0,0,0,0,0,0,0,0],"sum_hessian":[7.907705E2,3.397179E2,4.5105264E2,1.4790158E2,1.9181631E2,2.6466794E2,1.863847E2,1.1177197E2,3.61296E1,9.3319046E1,9.849726E1,2.169046E2,4.776334E1,1.0805179E2,7.833292E1,1.0841005E2,3.3619268E0,1.7760874E1,1.8368727E1,6.0812256E1,3.250679E1,3.3591156E1,6.4906105E1,1.6240196E2,5.4502647E1,1.2148542E1,3.5614796E1,5.0416027E1,5.763576E1,4.980342E0,7.335258E1],"tree_param":{"num_deleted":"0","num_feature":"25","num_nodes":"31","size_leaf_vector":"1"}},{"base_weights":[1.3283417E-2,-6.545785E-1,5.9888434E-1,-9.087603E-1,-1.7499828E-1,3.7129855E-1,1.0156834E0,-1.2701507E0,-7.725192E-1,-4.7991E-1,2.770434E-1,3.6593182E-3,6.7977154E-1,8.270742E-1,1.4447602E0,-3.323037E-3,-6.654549E-2,-4.7779545E-2,-1.869025E-2,3.1390335E-2,-3.025796E-2,-1.3164173E-2,2.8806156E-2,-1.6263455E-2,1.9669665E-2,8.21429E-4,4.0390674E-2,3.1339195E-2,6.8706214E-2,2.666382E-2,7.7099174E-2],"categories":[],"categories_nodes":[],"categories_segments":[],"categories_sizes":[],"default_left":[0,0,0,0,0,0,0,0,0,0,0,0,0,0,0,0,0,0,0,0,0,0,0,0,0,0,0,0,0,0,0],"id":6,"left_children":[1,3,5,7,9,11,13,15,17,19,21,23,25,27,29,-1,-1,-1,-1,-1,-1,-1,-1,-1,-1,-1,-1,-1,-1,-1,-1],"loss_changes":[3.0680817E2,4.4518143E1,3.9270126E1,1.0801315E1,1.7803005E1,3.083553E1,1.070491E1,4.5896072E0,1.2514526E1,1.10525055E1,8.599281E0,1.6161182E1,1.2544853E1,1.0586723E1,3.0378723E0,0E0,0E0,0E0,0E0,0E0,0E0,0E0,0E0,0E0,0E0,0E0,0E0,0E0,0E0,0E0,0E0],"parents":[2147483647,0,0,1,1,2,2,3,3,4,4,5,5,6,6,7,7,8,8,9,9,10,10,11,11,12,12,13,13,14,14],"right_children":[2,4,6,8,10,12,14,16,18,20,22,24,26,28,30,-1,-1,-1,-1,-1,-1,-1,-1,-1,-1,-1,-1,-1,-1,-1,-1],"split_conditions":[9.5004486E1,3.2111713E-1,2.7926505E-1,2.621155E1,5.7639862E1,1.4420811E2,6.854221E-1,5.3835317E-2,6.737406E-1,1.1664113E-1,5.561824E-1,5.4827285E-1,-7.952409E-1,1.7525345E2,1.06983736E-1,-3.323037E-3,-6.654549E-2,-4.7779545E-2,-1.869025E-2,3.1390335E-2,-3.025796E-2,-1.3164173E-2,2.8806156E-2,-1.6263455E-2,1.9669665E-2,8.21429E-4,4.0390674E-2,3.1339195E-2,6.8706214E-2,2.666382E-2,7.7099174E-2],"split_indices":[0,4,4,0,0,0,10,20,10,20,4,10,4,0,11,0,0,0,0,0,0,0,0,0,0,0,0,0,0,0,0],"split_type":[0,0,0,0,0,0,0,0,0,0,0,0,0,0,0,0,0,0,0,0,0,0,0,0,0,0,0,0,0,0,0],"sum_hessian":[7.8247144E2,3.6550507E2,4.1696637E2,2.3830591E2,1.2719917E2,2.7092395E2,1.4604243E2,6.296459E1,1.7534131E2,7.59247E1,5.1274467E1,1.2406943E2,1.4685452E2,1.03482315E2,4.2560116E1,3.126176E0,5.9838413E1,1.1920912E2,5.613219E1,7.305111E0,6.861959E1,1.8311687E1,3.296278E1,6.737313E1,5.6696297E1,2.3942844E1,1.22911674E2,7.7319305E1,2.6163012E1,4.727175E0,3.7832943E1],"tree_param":{"num_deleted":"0","num_feature":"25","num_nodes":"31","size_leaf_vector":"1"}},{"base_weights":[7.38195E-4,-6.585996E-1,5.009336E-1,2.721444E-3,-8.945656E-1,7.6787865E-1,-2.1489541E-1,-3.1899834E-1,5.6141627E-1,-6.150838E-1,-1.1147428E0,5.807442E-1,1.1685845E0,-5.8857334E-1,2.0926614E-1,4.1470226E-2,-2.2311425E-2,5.3838428E-2,-9.843717E-3,-4.598668E-2,-9.548309E-3,1.5561859E-2,-5.761982E-2,2.0115696E-2,5.5447925E-2,6.307452E-2,6.0161105E-3,-1.3160403E-2,-5.903511E-2,3.6842763E-2,-6.9803754E-3],"categories":[],"categories_nodes":[],"categories_segments":[],"categories_sizes":[],"default_left":[0,0,0,0,0,0,0,0,0,0,0,0,0,0,0,0,0,0,0,0,0,0,0,0,0,0,0,0,0,0,0],"id":7,"left_children":[1,3,5,7,9,11,13,15,17,19,21,23,25,27,29,-1,-1,-1,-1,-1,-1,-1,-1,-1,-1,-1,-1,-1,-1,-1,-1],"loss_changes":[2.5887866E2,5.2843002E1,8.545614E1,1.6364042E1,1.4671738E1,2.3716263E1,1.9463299E1,8.812202E0,1.321205E1,1.4322094E1,7.7879486E0,2.064212E1,9.838211E0,1.2237576E1,1.0757707E1,0E0,0E0,0E0,0E0,0E0,0E0,0E0,0E0,0E0,0E0,0E0,0E0,0E0,0E0,0E0,0E0],"parents":[2147483647,0,0,1,1,2,2,3,3,4,4,5,5,6,6,7,7,8,8,9,9,10,10,11,11,12,12,13,13,14,14],"right_children":[2,4,6,8,10,12,14,16,18,20,22,24,26,28,30,-1,-1,-1,-1,-1,-1,-1,-1,-1,-1,-1,-1,-1,-1,-1,-1],"split_conditions":[8.8788574E1,2.6574284E-1,7.262131E-1,6.5144515E-1,6.122976E-1,1.6338962E2,1.4920285E2,8.643317E-2,5.3056717E-1,4.7567078E1,1.6864914E-2,7.4745345E-1,9.188613E-1,6.119097E-1,4.4804794E-1,4.1470226E-2,-2.2311425E-2,5.3838428E-2,-9.843717E-3,-4.598668E-2,-9.548309E-3,1.5561859E-2,-5.761982E-2,2.0115696E-2,5.5447925E-2,6.307452E-2,6.0161105E-3,-1.3160403E-2,-5.903511E-2,3.6842763E-2,-6.9803754E-3],"split_indices":[0,5,5,10,5,0,0,20,15,0,15,10,20,15,20,0,0,0,0,0,0,0,0,0,0,0,0,0,0,0,0],"split_type":[0,0,0,0,0,0,0,0,0,0,0,0,0,0,0,0,0,0,0,0,0,0,0,0,0,0,0,0,0,0,0],"sum_hessian":[7.8296155E2,3.3761462E2,4.4534695E2,8.904487E1,2.4856975E2,3.2432703E2,1.21019905E2,5.6778484E1,3.2266388E1,1.1120513E2,1.3736462E2,2.2274959E2,1.0157745E2,6.4132675E1,5.6887234E1,5.1125684E0,5.1665916E1,1.8960434E1,1.3305954E1,6.403749E1,4.7167637E1,3.3469508E0,1.3401767E2,1.6782135E2,5.4928246E1,9.312087E1,8.45658E0,4.2321953E1,2.181072E1,2.2201141E1,3.468609E1],"tree_param":{"num_deleted":"0","num_feature":"25","num_nodes":"31","size_leaf_vector":"1"}},{"base_weights":[-3.7585847E-2,-5.7520646E-1,5.193632E-1,-8.755174E-1,-1.434879E-1,8.349574E-1,-3.2227837E-2,-3.4199226E-1,-1.0790716E0,2.030827E-1,-6.774827E-1,1.1126031E0,5.9270936E-1,-2.60775E-1,4.3110773E-1,-4.1353077E-2,9.18527E-3,-3.6936462E-2,-6.215274E-2,-3.431289E-2,2.334754E-2,-4.4341784E-2,5.042871E-3,4.040144E-2,6.754226E-2,4.5007404E-2,1.1834874E-2,-3.0784909E-2,1.1681704E-3,7.3099243E-3,5.8950074E-2],"categories":[],"categories_nodes":[],"categories_segments":[],"categories_sizes":[],"default_left":[0,0,0,0,0,0,0,0,0,0,0,0,0,0,0,0,0,0,0,0,0,0,0,0,0,0,0,0,0,0,0],"id":8,"left_children":[1,3,5,7,9,11,13,15,17,19,21,23,25,27,29,-1,-1,-1,-1,-1,-1,-1,-1,-1,-1,-1,-1,-1,-1,-1,-1],"loss_changes":[2.3635538E2,5.1943726E1,6.752518E1,2.5332428E1,3.0850632E1,1.5931381E1,1.5157281E1,1.7191143E1,8.616318E0,2.4117983E1,1.0770239E1,7.165909E0,1.4439552E1,9.672203E0,9.908092E0,0E0,0E0,0E0,0E0,0E0,0E0,0E0,0E0,0E0,0E0,0E0,0E0,0E0,0E0,0E0,0E0],"parents":[2147483647,0,0,1,1,2,2,3,3,4,4,5,5,6,6,7,7,8,8,9,9,10,10,11,11,12,12,13,13,14,14],"right_children":[2,4,6,8,10,12,14,16,18,20,22,24,26,28,30,-1,-1,-1,-1,-1,-1,-1,-1,-1,-1,-1,-1,-1,-1,-1,-1],"split_conditions":[1.0244859E2,2.1242669E-1,6.376317E-1,3.0053875E-1,6.1749727E-1,2.9445362E-1,2.6199412E-1,-1.1911238E-2,3.2470283E-1,2.545524E1,8.251431E1,-5.939452E-2,5.5221266E-1,1.4743034E2,7.12792E-1,-4.1353077E-2,9.18527E-3,-3.6936462E-2,-6.215274E-2,-3.431289E-2,2.334754E-2,-4.4341784E-2,5.042871E-3,4.040144E-2,6.754226E-2,4.5007404E-2,1.1834874E-2,-3.0784909E-2,1.1681704E-3,7.3099243E-3,5.8950074E-2],"split_indices":[0,4,5,5,5,5,4,19,15,0,0,4,15,0,10,0,0,0,0,0,0,0,0,0,0,0,0,0,0,0,0],"split_type":[0,0,0,0,0,0,0,0,0,0,0,0,0,0,0,0,0,0,0,0,0,0,0,0,0,0,0,0,0,0,0],"sum_hessian":[7.873605E2,4.006154E2,3.8674512E2,2.3565892E2,1.6495645E2,2.4567044E2,1.4107468E2,6.582048E1,1.6983844E2,1.0040913E2,6.454733E1,1.12797745E2,1.328727E2,9.476675E1,4.630793E1,3.3934937E1,3.1885548E1,5.7013466E1,1.1282497E2,2.2608551E1,7.7800575E1,5.075593E1,1.3791398E1,5.1434425E1,6.136332E1,7.048018E1,6.2392513E1,4.16162E1,5.3150547E1,3.439911E1,1.1908821E1],"tree_param":{"num_deleted":"0","num_feature":"25","num_nodes":"31","size_leaf_vector":"1"}},{"base_weights":[-1.3066237E-2,-5.75562E-1,4.7690555E-1,-2.13195E-1,-9.2930263E-1,7.620406E-1,-1.4134352E-2,-6.7216885E-1,1.0256841E-1,-7.655465E-1,-1.1647377E0,-1.5023708E-1,8.7676156E-1,3.0169252E-1,-4.526424E-1,6.194069E-2,-3.8515072E-2,2.588349E-2,-6.7664064E-3,-4.15126E-2,5.254991E-3,3.0492648E-2,-6.0474318E-2,2.1521093E-2,-3.339084E-2,1.8326921E-2,5.082651E-2,4.4239876E-3,4.8124384E-2,-3.1924672E-2,2.161455E-2],"categories":[],"categories_nodes":[],"categories_segments":[],"categories_sizes":[],"default_left":[0,0,0,0,0,0,0,0,0,0,0,0,0,0,0,0,0,0,0,0,0,0,0,0,0,0,0,0,0,0,0],"id":9,"left_children":[1,3,5,7,9,11,13,15,17,19,21,23,25,27,29,-1,-1,-1,-1,-1,-1,-1,-1,-1,-1,-1,-1,-1,-1,-1,-1],"loss_changes":[2.1174904E2,4.564923E1,5.7505043E1,2.5862738E1,6.0746765E0,2.7322021E1,2.1164274E1,1.4582344E1,1.0567905E1,6.2552032E0,6.4714584E0,9.266011E0,1.6095642E1,1.2434753E1,1.0796836E1,0E0,0E0,0E0,0E0,0E0,0E0,0E0,0E0,0E0,0E0,0E0,0E0,0E0,0E0,0E0,0E0],"parents":[2147483647,0,0,1,1,2,2,3,3,4,4,5,5,6,6,7,7,8,8,9,9,10,10,11,11,12,12,13,13,14,14],"right_children":[2,4,6,8,10,12,14,16,18,20,22,24,26,28,30,-1,-1,-1,-1,-1,-1,-1,-1,-1,-1,-1,-1,-1,-1,-1,-1],"split_conditions":[9.5004486E1,5.130956E-1,6.2138623E-1,3.7543186E1,6.227696E-1,1.0824675E-1,5.890561E-1,2.676154E-2,4.0981048E-1,9.178305E-1,5.585521E-3,4.853513E-1,1.1537219E2,7.864984E-1,1.8496837E2,6.194069E-2,-3.8515072E-2,2.588349E-2,-6.7664064E-3,-4.15126E-2,5.254991E-3,3.0492648E-2,-6.0474318E-2,2.1521093E-2,-3.339084E-2,1.8326921E-2,5.082651E-2,4.4239876E-3,4.8124384E-2,-3.1924672E-2,2.161455E-2],"split_indices":[0,5,5,0,20,10,15,20,20,21,3,15,0,10,0,0,0,0,0,0,0,0,0,0,0,0,0,0,0,0,0],"split_type":[0,0,0,0,0,0,0,0,0,0,0,0,0,0,0,0,0,0,0,0,0,0,0,0,0,0,0,0,0,0,0],"sum_hessian":[7.663045E2,3.5666846E2,4.0963602E2,1.7697766E2,1.796908E2,2.5880328E2,1.5083273E2,7.167161E1,1.0530606E2,1.0848561E2,7.120519E1,2.887506E1,2.2992824E2,8.7863075E1,6.296966E1,2.9329524E0,6.8738655E1,3.7936066E1,6.7369995E1,1.0102401E2,7.4616003E0,1.4407578E0,6.9764435E1,1.3687646E1,1.5187413E1,5.0220726E1,1.797075E2,6.7286316E1,2.0576765E1,5.2270462E1,1.0699199E1],"tree_param":{"num_deleted":"0","num_feature":"25","num_nodes":"31","size_leaf_vector":"1"}},{"base_weights":[-3.0997101E-2,-5.289533E-1,4.6788165E-1,-1.8947151E-1,-8.6136866E-1,1.0704826E0,2.1946797E-1,-7.685498E-1,-1.9210335E-2,-6.608346E-1,-1.1639173E0,3.659051E-1,1.1625886E0,-9.437169E-2,4.6958944E-1,-1.9071056E-2,-5.429854E-2,1.38103245E-2,-1.6869241E-2,-4.73866E-2,-2.168764E-2,2.531713E-3,-5.971187E-2,6.952832E-2,-1.1690356E-2,1.6789116E-2,6.1762758E-2,-1.7689405E-2,2.496084E-2,3.3466313E-2,2.9379257E-3],"categories":[],"categories_nodes":[],"categories_segments":[],"categories_sizes":[],"default_left":[0,0,0,0,0,0,0,0,0,0,0,0,0,0,0,0,0,0,0,0,0,0,0,0,0,0,0,0,0,0,0],"id":10,"left_children":[1,3,5,7,9,11,13,15,17,19,21,23,25,27,29,-1,-1,-1,-1,-1,-1,-1,-1,-1,-1,-1,-1,-1,-1,-1,-1],"loss_changes":[1.9160912E2,4.3394646E1,5.7447075E1,1.8939453E1,1.1045944E1,6.857315E0,2.156144E1,4.950247E0,1.4153668E1,7.369549E0,2.8706665E0,9.194494E0,5.5205383E0,1.902502E1,1.249155E1,0E0,0E0,0E0,0E0,0E0,0E0,0E0,0E0,0E0,0E0,0E0,0E0,0E0,0E0,0E0,0E0],"parents":[2147483647,0,0,1,1,2,2,3,3,4,4,5,5,6,6,7,7,8,8,9,9,10,10,11,11,12,12,13,13,14,14],"right_children":[2,4,6,8,10,12,14,16,18,20,22,24,26,28,30,-1,-1,-1,-1,-1,-1,-1,-1,-1,-1,-1,-1,-1,-1,-1,-1],"split_conditions":[1.00635704E2,5.130956E-1,2.9445362E-1,2.4787611E1,6.2643737E-1,1.0824675E-1,1.4483833E2,3.9061752E-1,5.195729E-1,4.1952133E1,1.8612858E1,3.3725795E-1,7.258766E-2,6.9632363E-1,7.7583796E-1,-1.9071056E-2,-5.429854E-2,1.38103245E-2,-1.6869241E-2,-4.73866E-2,-2.168764E-2,2.531713E-3,-5.971187E-2,6.952832E-2,-1.1690356E-2,1.6789116E-2,6.1762758E-2,-1.7689405E-2,2.496084E-2,3.3466313E-2,2.9379257E-3],"split_indices":[0,5,5,0,15,10,0,22,15,0,2,22,6,10,5,0,0,0,0,0,0,0,0,0,0,0,0,0,0,0,0],"split_type":[0,0,0,0,0,0,0,0,0,0,0,0,0,0,0,0,0,0,0,0,0,0,0,0,0,0,0,0,0,0,0],"sum_hessian":[7.693156E2,3.849836E2,3.8433197E2,1.9124408E2,1.9373953E2,1.1122165E2,2.7311032E2,4.265511E1,1.4858897E2,1.1842789E2,7.531165E1,1.343343E1,9.778822E1,1.21402885E2,1.5170744E2,2.0209318E1,2.244579E1,7.711841E1,7.147056E1,5.092067E1,6.750722E1,1.8179654E0,7.349368E1,4.4727015E0,8.960728E0,8.354202E0,8.943402E1,8.4762886E1,3.664E1,1.0165557E2,5.0051872E1],"tree_param":{"num_deleted":"0","num_feature":"25","num_nodes":"31","size_leaf_vector":"1"}},{"base_weights":[-1.0395481E-2,-6.4250255E-1,3.5736457E-1,-1.4153154E-1,-8.29434E-1,8.437734E-1,7.895331E-2,4.38626E-1,-3.7434193E-1,-9.558705E-1,-1.270137E-1,5.1827514E-1,1.1968058E0,-1.6930024E-1,4.9258727E-1,-3.2030046E-2,4.733629E-2,-2.8371556E-2,2.244787E-2,-1.8635336E-2,-5.1083386E-2,-2.2749936E-2,3.3711087E-2,4.1458234E-2,-2.4243072E-3,-3.5192836E-5,6.2188875E-2,-2.4039252E-2,9.449533E-3,-6.856666E-3,3.222759E-2],"categories":[],"categories_nodes":[],"categories_segments":[],"categories_sizes":[],"default_left":[0,0,0,0,0,0,0,0,0,0,0,0,0,0,0,0,0,0,0,0,0,0,0,0,0,0,0,0,0,0,0],"id":11,"left_children":[1,3,5,7,9,11,13,15,17,19,21,23,25,27,29,-1,-1,-1,-1,-1,-1,-1,-1,-1,-1,-1,-1,-1,-1,-1,-1],"loss_changes":[1.8059065E2,2.6640297E1,6.6444275E1,1.0814198E1,1.8340591E1,1.9912346E1,3.227107E1,1.3241007E1,9.28571E0,6.373001E0,8.943128E0,1.6731684E1,4.7793427E0,2.2035553E1,1.1363562E1,0E0,0E0,0E0,0E0,0E0,0E0,0E0,0E0,0E0,0E0,0E0,0E0,0E0,0E0,0E0,0E0],"parents":[2147483647,0,0,1,1,2,2,3,3,4,4,5,5,6,6,7,7,8,8,9,9,10,10,11,11,12,12,13,13,14,14],"right_children":[2,4,6,8,10,12,14,16,18,20,22,24,26,28,30,-1,-1,-1,-1,-1,-1,-1,-1,-1,-1,-1,-1,-1,-1,-1,-1],"split_conditions":[7.703355E1,2.7282342E-1,3.6258936E-1,3.215814E-1,6.970524E-1,5.8910534E-2,2.3328964E-1,2.3420713E1,7.983842E-1,8.7822005E-2,6.9274646E-1,6.1634177E-1,4.9634058E-2,1.4420811E2,2.0156579E-1,-3.2030046E-2,4.733629E-2,-2.8371556E-2,2.244787E-2,-1.8635336E-2,-5.1083386E-2,-2.2749936E-2,3.3711087E-2,4.1458234E-2,-2.4243072E-3,-3.5192836E-5,6.2188875E-2,-2.4039252E-2,9.449533E-3,-6.856666E-3,3.222759E-2],"split_indices":[0,5,5,20,4,4,4,0,13,15,10,15,13,0,10,0,0,0,0,0,0,0,0,0,0,0,0,0,0,0,0],"split_type":[0,0,0,0,0,0,0,0,0,0,0,0,0,0,0,0,0,0,0,0,0,0,0,0,0,0,0,0,0,0,0],"sum_hessian":[7.748675E2,2.8472842E2,4.901391E2,7.784994E1,2.0687848E2,1.7768214E2,3.1245697E2,2.2040794E1,5.5809143E1,1.7501479E2,3.1863699E1,9.3730255E1,8.395189E1,1.9563315E2,1.1682381E2,6.971735E0,1.5069059E1,4.5458504E1,1.035064E1,1.842019E1,1.5659459E2,2.291542E1,8.948278E0,6.0229282E1,3.3500977E1,3.205862E0,8.0746025E1,1.0446943E2,9.116372E1,2.2730259E1,9.4093544E1],"tree_param":{"num_deleted":"0","num_feature":"25","num_nodes":"31","size_leaf_vector":"1"}},{"base_weights":[-1.1953788E-2,1.8375531E-1,-5.1856947E-1,9.238198E-4,5.446812E-1,-6.8248475E-1,1.5495886E-2,2.3076046E-1,-3.8699618E-1,7.976484E-2,6.468628E-1,-2.9231232E-1,-7.9125875E-1,6.651624E-1,-3.055358E-1,2.5488773E-2,2.238379E-3,-1.4614605E-3,-3.2779593E-2,1.099079E-2,-6.352915E-2,4.765629E-2,2.294786E-2,-2.4600534E-2,2.535676E-2,2.274105E-2,-4.156814E-2,-2.3858337E-2,4.4347215E-2,1.8704692E-2,-2.6847098E-2],"categories":[],"categories_nodes":[],"categories_segments":[],"categories_sizes":[],"default_left":[0,0,0,0,0,0,0,0,0,0,0,0,0,0,0,0,0,0,0,0,0,0,0,0,0,0,0,0,0,0,0],"id":12,"left_children":[1,3,5,7,9,11,13,15,17,19,21,23,25,27,29,-1,-1,-1,-1,-1,-1,-1,-1,-1,-1,-1,-1,-1,-1,-1,-1],"loss_changes":[7.630203E1,3.6634094E1,1.8783028E1,3.3033245E1,8.81612E0,6.7333374E0,1.0910358E1,1.2050696E1,1.3227112E1,6.8557954E0,8.361202E0,6.214226E0,6.7617264E0,4.8044224E0,5.7122965E0,0E0,0E0,0E0,0E0,0E0,0E0,0E0,0E0,0E0,0E0,0E0,0E0,0E0,0E0,0E0,0E0],"parents":[2147483647,0,0,1,1,2,2,3,3,4,4,5,5,6,6,7,7,8,8,9,9,10,10,11,11,12,12,13,13,14,14],"right_children":[2,4,6,8,10,12,14,16,18,20,22,24,26,28,30,-1,-1,-1,-1,-1,-1,-1,-1,-1,-1,-1,-1,-1,-1,-1,-1],"split_conditions":[7.1782666E-1,3.623184E-1,5.135541E-1,6.232646E-1,1.8294348E-1,2.209066E1,3.410905E-1,2.875223E-1,3.10234E-1,9.227181E-1,2.6574284E-1,6.5112114E-1,2.5268694E-2,1.7043556E-1,7.829884E-1,2.5488773E-2,2.238379E-3,-1.4614605E-3,-3.2779593E-2,1.099079E-2,-6.352915E-2,4.765629E-2,2.294786E-2,-2.4600534E-2,2.535676E-2,2.274105E-2,-4.156814E-2,-2.3858337E-2,4.4347215E-2,1.8704692E-2,-2.6847098E-2],"split_indices":[5,4,4,15,13,2,15,5,5,15,5,19,12,10,5,0,0,0,0,0,0,0,0,0,0,0,0,0,0,0,0],"split_type":[0,0,0,0,0,0,0,0,0,0,0,0,0,0,0,0,0,0,0,0,0,0,0,0,0,0,0,0,0,0,0],"sum_hessian":[7.6760596E2,5.5416534E2,2.1344058E2,3.684998E2,1.8566559E2,1.6310309E2,5.033749E1,2.3165367E2,1.368461E2,3.3774685E1,1.518909E2,3.6361553E1,1.2674154E2,1.6293219E1,3.404427E1,9.196005E1,1.3969362E2,5.915757E1,7.768853E1,3.1359463E1,2.4152226E0,5.6207394E1,9.568351E1,2.9401703E1,6.9598494E0,3.629441E0,1.231121E2,2.4617908E0,1.3831428E1,8.490738E0,2.5553532E1],"tree_param":{"num_deleted":"0","num_feature":"25","num_nodes":"31","size_leaf_vector":"1"}},{"base_weights":[-1.2575189E-2,-5.3237146E-1,4.3433163E-1,-7.2166395E-1,4.4540007E-2,2.2938369E-1,7.972963E-1,-1.0522748E0,-5.9680456E-1,-2.4196514E-1,5.768346E-1,4.7675264E-1,-1.17385834E-1,2.4132182E-1,9.5879006E-1,-4.5539155E-3,-5.5060863E-2,-1.552317E-2,-3.812589E-2,4.6151713E-2,-2.012092E-2,1.0134794E-2,5.4506328E-2,1.1074957E-2,4.1523304E-2,-2.4202231E-2,1.5188398E-2,-7.3455432E-3,4.9079876E-2,1.96516E-2,5.27981E-2],"categories":[],"categories_nodes":[],"categories_segments":[],"categories_sizes":[],"default_left":[0,0,0,0,0,0,0,0,0,0,0,0,0,0,0,0,0,0,0,0,0,0,0,0,0,0,0,0,0,0,0],"id":13,"left_children":[1,3,5,7,9,11,13,15,17,19,21,23,25,27,29,-1,-1,-1,-1,-1,-1,-1,-1,-1,-1,-1,-1,-1,-1,-1,-1],"loss_changes":[1.7691385E2,3.847937E1,3.0280365E1,1.0317108E1,1.3547862E1,2.2627464E1,1.3001427E1,3.2573853E0,9.005196E0,1.11872225E1,5.743788E0,1.369989E1,1.7188389E1,1.0062386E1,5.845131E0,0E0,0E0,0E0,0E0,0E0,0E0,0E0,0E0,0E0,0E0,0E0,0E0,0E0,0E0,0E0,0E0],"parents":[2147483647,0,0,1,1,2,2,3,3,4,4,5,5,6,6,7,7,8,8,9,9,10,10,11,11,12,12,13,13,14,14],"right_children":[2,4,6,8,10,12,14,16,18,20,22,24,26,28,30,-1,-1,-1,-1,-1,-1,-1,-1,-1,-1,-1,-1,-1,-1,-1,-1],"split_conditions":[9.5004486E1,5.5082244E-1,2.7926505E-1,2.6910442E1,6.17497E1,5.890561E-1,2.0654383E-1,1.9224121E1,3.5824853E-1,1.5679938E-1,6.4536333E-1,1.5476996E2,5.112358E-1,1.6994604E2,1.0834772E2,-4.5539155E-3,-5.5060863E-2,-1.552317E-2,-3.812589E-2,4.6151713E-2,-2.012092E-2,1.0134794E-2,5.4506328E-2,1.1074957E-2,4.1523304E-2,-2.4202231E-2,1.5188398E-2,-7.3455432E-3,4.9079876E-2,1.96516E-2,5.27981E-2],"split_indices":[0,4,4,0,0,15,10,2,15,20,23,0,10,0,0,0,0,0,0,0,0,0,0,0,0,0,0,0,0,0,0],"split_type":[0,0,0,0,0,0,0,0,0,0,0,0,0,0,0,0,0,0,0,0,0,0,0,0,0,0,0,0,0,0,0],"sum_hessian":[7.5957794E2,3.5106445E2,4.085135E2,2.6414423E2,8.692023E1,2.6213245E2,1.4638104E2,7.037446E1,1.9376976E2,5.686067E1,3.0059563E1,1.527751E2,1.09357346E2,3.3510113E1,1.1287093E2,3.5483432E0,6.682612E1,7.208513E1,1.2168464E2,6.307957E0,5.0552708E1,1.8193329E1,1.1866235E1,8.968273E1,6.3092365E1,5.8381107E1,5.0976242E1,2.2507662E1,1.1002449E1,1.7284016E1,9.5586914E1],"tree_param":{"num_deleted":"0","num_feature":"25","num_nodes":"31","size_leaf_vector":"1"}},{"base_weights":[1.5705349E-2,-4.6782807E-1,4.5095888E-1,-1.9079126E-1,-8.75788E-1,8.82576E-1,2.4503069E-1,-4.6702933E-1,1.6923054E-1,-1.0004486E0,-6.857778E-2,-5.3444415E-1,9.281201E-1,2.952536E-2,6.690622E-1,-1.0999198E-2,-5.17412E-2,-7.3289024E-3,2.9895252E-2,2.0101245E-2,-5.1489998E-2,1.55018335E-2,-3.7863895E-2,4.9464136E-2,-7.610201E-2,6.686663E-2,3.85482E-2,1.5740713E-2,-1.7672583E-2,3.8095158E-2,-4.0172942E-2],"categories":[],"categories_nodes":[],"categories_segments":[],"categories_sizes":[],"default_left":[0,0,0,0,0,0,0,0,0,0,0,0,0,0,0,0,0,0,0,0,0,0,0,0,0,0,0,0,0,0,0],"id":14,"left_children":[1,3,5,7,9,11,13,15,17,19,21,23,25,27,29,-1,-1,-1,-1,-1,-1,-1,-1,-1,-1,-1,-1,-1,-1,-1,-1],"loss_changes":[1.6041275E2,4.064338E1,3.5435104E1,2.159359E1,1.4598778E1,8.832542E0,2.4921251E1,1.6980143E1,1.2902135E1,5.6084213E0,5.599102E0,8.513792E0,7.0410156E0,1.9997456E1,1.3179199E1,0E0,0E0,0E0,0E0,0E0,0E0,0E0,0E0,0E0,0E0,0E0,0E0,0E0,0E0,0E0,0E0],"parents":[2147483647,0,0,1,1,2,2,3,3,4,4,5,5,6,6,7,7,8,8,9,9,10,10,11,11,12,12,13,13,14,14],"right_children":[2,4,6,8,10,12,14,16,18,20,22,24,26,28,30,-1,-1,-1,-1,-1,-1,-1,-1,-1,-1,-1,-1,-1,-1,-1,-1],"split_conditions":[9.796485E1,6.122976E-1,3.1970802E-1,2.1242669E-1,6.970524E-1,1.8492172E1,2.7926505E-1,6.769526E-1,5.6944016E1,8.53562E-3,6.8521386E-1,1.6407621E-1,2.867427E-1,5.8567894E-1,9.447742E-1,-1.0999198E-2,-5.17412E-2,-7.3289024E-3,2.9895252E-2,2.0101245E-2,-5.1489998E-2,1.55018335E-2,-3.7863895E-2,4.9464136E-2,-7.610201E-2,6.686663E-2,3.85482E-2,1.5740713E-2,-1.7672583E-2,3.8095158E-2,-4.0172942E-2],"split_indices":[0,5,5,4,4,2,4,15,0,15,15,5,15,15,8,0,0,0,0,0,0,0,0,0,0,0,0,0,0,0,0],"split_type":[0,0,0,0,0,0,0,0,0,0,0,0,0,0,0,0,0,0,0,0,0,0,0,0,0,0,0,0,0,0,0],"sum_hessian":[7.601995E2,3.6009103E2,4.0010846E2,2.1533162E2,1.4475941E2,1.2817438E2,2.719341E2,1.2167524E2,9.365638E1,1.2518691E2,1.9572504E1,3.657058E0,1.2451731E2,1.810094E2,9.09247E1,8.5752205E1,3.5923035E1,5.4306404E1,3.9349976E1,2.3059583E0,1.2288096E2,1.2984222E1,6.5882816E0,1.437493E0,2.219565E0,3.2467323E1,9.204999E1,1.03836815E2,7.7172585E1,8.5985954E1,4.9387407E0],"tree_param":{"num_deleted":"0","num_feature":"25","num_nodes":"31","size_leaf_vector":"1"}},{"base_weights":[-1.7215565E-2,-4.3438068E-1,3.9540476E-1,-6.7799383E-1,-9.256725E-2,5.9798324E-1,-1.4249238E-1,-2.0819488E-1,-8.7356824E-1,2.4644841E-1,-4.7880644E-1,9.173042E-1,4.024181E-1,-3.7370813E-1,3.8445774E-1,4.7531477E-3,-4.1209217E-2,-2.0296155E-2,-4.9481727E-2,4.0214423E-2,-7.6514E-3,-3.207551E-2,2.6881715E-2,5.6563266E-2,2.507324E-2,3.139487E-3,3.3006508E-2,1.6446618E-2,-2.7853692E-2,6.415444E-2,5.7300366E-3],"categories":[],"categories_nodes":[],"categories_segments":[],"categories_sizes":[],"default_left":[0,0,0,0,0,0,0,0,0,0,0,0,0,0,0,0,0,0,0,0,0,0,0,0,0,0,0,0,0,0,0],"id":15,"left_children":[1,3,5,7,9,11,13,15,17,19,21,23,25,27,29,-1,-1,-1,-1,-1,-1,-1,-1,-1,-1,-1,-1,-1,-1,-1,-1],"loss_changes":[1.2951152E2,3.1090363E1,4.130537E1,1.987384E1,2.0654903E1,1.6803162E1,1.2851236E1,1.2308824E1,7.9466248E0,1.888358E1,1.2525698E1,8.656052E0,1.5041204E1,9.588252E0,7.6858497E0,0E0,0E0,0E0,0E0,0E0,0E0,0E0,0E0,0E0,0E0,0E0,0E0,0E0,0E0,0E0,0E0],"parents":[2147483647,0,0,1,1,2,2,3,3,4,4,5,5,6,6,7,7,8,8,9,9,10,10,11,11,12,12,13,13,14,14],"right_children":[2,4,6,8,10,12,14,16,18,20,22,24,26,28,30,-1,-1,-1,-1,-1,-1,-1,-1,-1,-1,-1,-1,-1,-1,-1,-1],"split_conditions":[1.0244859E2,2.1242669E-1,7.229547E-1,3.0053875E-1,5.130956E-1,3.626262E-1,3.415861E-1,6.769526E-1,2.1494699E-1,4.147116E-1,8.5907197E-1,6.6254544E-1,4.209427E-1,2.1756403E1,-5.517012E-1,4.7531477E-3,-4.1209217E-2,-2.0296155E-2,-4.9481727E-2,4.0214423E-2,-7.6514E-3,-3.207551E-2,2.6881715E-2,5.6563266E-2,2.507324E-2,3.139487E-3,3.3006508E-2,1.6446618E-2,-2.7853692E-2,6.415444E-2,5.7300366E-3],"split_indices":[0,4,5,5,5,15,4,15,20,20,21,20,10,2,24,0,0,0,0,0,0,0,0,0,0,0,0,0,0,0,0],"split_type":[0,0,0,0,0,0,0,0,0,0,0,0,0,0,0,0,0,0,0,0,0,0,0,0,0,0,0,0,0,0,0],"sum_hessian":[7.5040393E2,3.7312073E2,3.7728317E2,2.1728001E2,1.5584071E2,2.7398532E2,1.0329785E2,6.447236E1,1.5280766E2,8.318673E1,7.2653984E1,1.0266396E2,1.7132137E2,7.199752E1,3.1300337E1,4.376974E1,2.0702612E1,3.1278818E1,1.2152885E2,3.4289944E1,4.889679E1,6.2946823E1,9.70716E0,6.665015E1,3.601382E1,7.445015E1,9.6871216E1,1.4736137E1,5.726138E1,6.3615394E0,2.4938797E1],"tree_param":{"num_deleted":"0","num_feature":"25","num_nodes":"31","size_leaf_vector":"1"}},{"base_weights":[1.9917937E-2,-4.726575E-1,3.8085786E-1,-6.5507185E-1,8.1706665E-2,5.696201E-1,-1.261424E-1,-1.3986158E-1,-8.75882E-1,4.35405E-1,-3.6207804E-1,3.5855538E-1,8.939642E-1,-4.5088372E-1,2.1657164E-1,-5.2613135E-2,6.3647574E-4,-3.0384196E-2,-5.1152296E-2,-1.1822457E-2,3.4684293E-2,-3.3541407E-2,2.9655462E-2,2.532116E-2,-1.9073224E-2,5.7647046E-2,3.263219E-2,-3.499432E-2,6.435291E-3,2.9980881E-2,-8.455529E-3],"categories":[],"categories_nodes":[],"categories_segments":[],"categories_sizes":[],"default_left":[0,0,0,0,0,0,0,0,0,0,0,0,0,0,0,0,0,0,0,0,0,0,0,0,0,0,0,0,0,0,0],"id":16,"left_children":[1,3,5,7,9,11,13,15,17,19,21,23,25,27,29,-1,-1,-1,-1,-1,-1,-1,-1,-1,-1,-1,-1,-1,-1,-1,-1],"loss_changes":[1.3339923E2,3.2141922E1,4.1509953E1,2.7051743E1,1.2628864E1,2.1291443E1,1.326251E1,1.0156033E1,5.97023E0,7.9150324E0,1.0951162E1,2.130306E1,6.983513E0,8.902492E0,8.70362E0,0E0,0E0,0E0,0E0,0E0,0E0,0E0,0E0,0E0,0E0,0E0,0E0,0E0,0E0,0E0,0E0],"parents":[2147483647,0,0,1,1,2,2,3,3,4,4,5,5,6,6,7,7,8,8,9,9,10,10,11,11,12,12,13,13,14,14],"right_children":[2,4,6,8,10,12,14,16,18,20,22,24,26,28,30,-1,-1,-1,-1,-1,-1,-1,-1,-1,-1,-1,-1,-1,-1,-1,-1],"split_conditions":[8.8788574E1,5.561824E-1,7.262131E-1,3.0053875E-1,5.687805E-1,1.5635141E2,1.4920285E2,1.1735922E-1,3.5824853E-1,2.545524E1,7.6911837E-1,8.394376E-1,4.6940568E-1,6.828868E-1,4.8730466E-1,-5.2613135E-2,6.3647574E-4,-3.0384196E-2,-5.1152296E-2,-1.1822457E-2,3.4684293E-2,-3.3541407E-2,2.9655462E-2,2.532116E-2,-1.9073224E-2,5.7647046E-2,3.263219E-2,-3.499432E-2,6.435291E-3,2.9980881E-2,-8.455529E-3],"split_indices":[0,4,5,5,15,0,0,10,15,0,13,15,15,10,20,0,0,0,0,0,0,0,0,0,0,0,0,0,0,0,0],"split_type":[0,0,0,0,0,0,0,0,0,0,0,0,0,0,0,0,0,0,0,0,0,0,0,0,0,0,0,0,0,0,0],"sum_hessian":[7.48306E2,3.1631744E2,4.319886E2,2.3786572E2,7.845173E1,3.146989E2,1.17289665E2,7.185106E1,1.6601466E2,4.3667458E1,3.478427E1,1.9191623E2,1.227827E2,6.0061913E1,5.7227753E1,9.449985E0,6.2401077E1,6.0636738E1,1.0537792E2,1.21490965E1,3.1518362E1,2.6512274E1,8.271997E0,1.602178E2,3.1698416E1,5.740258E1,6.538012E1,4.186735E1,1.8194563E1,2.8433708E1,2.8794046E1],"tree_param":{"num_deleted":"0","num_feature":"25","num_nodes":"31","size_leaf_vector":"1"}},{"base_weights":[1.6964832E-2,-1.587897E-1,2.8619358E-1,1.3273137E-2,-4.5145953E-1,1.5695895E-1,6.526253E-1,1.9586854E-1,-3.1920537E-1,-6.107548E-1,-1.5422069E-1,4.3118888E-1,-8.472463E-3,9.6611775E-2,8.4577185E-1,-1.2942503E-2,1.913055E-2,-2.4870535E-2,9.493056E-3,-1.3298757E-2,-4.072519E-2,4.0018775E-2,-1.25082405E-2,3.7191655E-2,6.5785223E-3,-2.7178869E-2,3.0116462E-3,-2.6778212E-2,2.7151754E-2,4.5819085E-2,-3.377409E-2],"categories":[],"categories_nodes":[],"categories_segments":[],"categories_sizes":[],"default_left":[0,0,0,0,0,0,0,0,0,0,0,0,0,0,0,0,0,0,0,0,0,0,0,0,0,0,0,0,0,0,0],"id":17,"left_children":[1,3,5,7,9,11,13,15,17,19,21,23,25,27,29,-1,-1,-1,-1,-1,-1,-1,-1,-1,-1,-1,-1,-1,-1,-1,-1],"loss_changes":[3.5205048E1,2.267746E1,1.3812418E1,1.733395E1,7.7995224E0,9.918077E0,8.11179E0,1.5745562E1,9.278289E0,7.384678E0,5.650463E0,7.606824E0,5.0802193E0,6.1607404E0,6.687542E0,0E0,0E0,0E0,0E0,0E0,0E0,0E0,0E0,0E0,0E0,0E0,0E0,0E0,0E0,0E0,0E0],"parents":[2147483647,0,0,1,1,2,2,3,3,4,4,5,5,6,6,7,7,8,8,9,9,10,10,11,11,12,12,13,13,14,14],"right_children":[2,4,6,8,10,12,14,16,18,20,22,24,26,28,30,-1,-1,-1,-1,-1,-1,-1,-1,-1,-1,-1,-1,-1,-1,-1,-1],"split_conditions":[2.1242669E-1,6.2006605E-1,7.3576665E-1,6.6254544E-1,6.1576E-1,3.7610564E-1,2.6168907E-1,3.0595085E-1,7.2351474E-1,3.7610564E-1,8.228057E-2,4.931883E-1,9.202963E-2,4.5174816E-1,9.464864E-1,-1.2942503E-2,1.913055E-2,-2.4870535E-2,9.493056E-3,-1.3298757E-2,-4.072519E-2,4.0018775E-2,-1.25082405E-2,3.7191655E-2,6.5785223E-3,-2.7178869E-2,3.0116462E-3,-2.6778212E-2,2.7151754E-2,4.5819085E-2,-3.377409E-2],"split_indices":[4,15,10,20,10,20,16,10,13,20,13,15,10,21,18,0,0,0,0,0,0,0,0,0,0,0,0,0,0,0,0],"split_type":[0,0,0,0,0,0,0,0,0,0,0,0,0,0,0,0,0,0,0,0,0,0,0,0,0,0,0,0,0,0,0],"sum_hessian":[7.420466E2,4.4920947E2,2.928371E2,2.8349515E2,1.6571432E2,2.1754189E2,7.5295204E1,1.832604E2,1.0023474E2,1.0720605E2,5.8508278E1,8.1250046E1,1.3629184E2,1.9799194E1,5.549601E1,5.3238453E1,1.3002196E2,7.426145E1,2.5973291E1,4.067764E1,6.6528404E1,4.672922E0,5.3835354E1,3.9035202E1,4.2214844E1,1.4721695E1,1.21570145E2,8.112078E0,1.1687118E1,5.3414368E1,2.0816422E0],"tree_param":{"num_deleted":"0","num_feature":"25","num_nodes":"31","size_leaf_vector":"1"}},{"base_weights":[-8.809113E-3,-1.8757501E-1,2.751419E-1,8.180915E-2,-3.3166045E-1,1.5002452E-1,6.185587E-1,-8.129156E-2,4.3589726E-1,-2.6833665E-1,-7.0701E-1,9.807227E-1,9.671227E-2,3.5589513E-1,1.0485308E0,-8.697701E-3,3.3256497E-2,4.305017E-2,3.3964596E-3,-1.924912E-2,2.4401636E-5,-1.61035E-2,-5.247752E-2,-6.1397385E-3,5.959664E-2,5.351702E-2,3.0341318E-3,-1.09183295E-2,2.9298022E-2,-4.926872E-3,5.9033986E-2],"categories":[],"categories_nodes":[],"categories_segments":[],"categories_sizes":[],"default_left":[0,0,0,0,0,0,0,0,0,0,0,0,0,0,0,0,0,0,0,0,0,0,0,0,0,0,0,0,0,0,0],"id":18,"left_children":[1,3,5,7,9,11,13,15,17,19,21,23,25,27,29,-1,-1,-1,-1,-1,-1,-1,-1,-1,-1,-1,-1,-1,-1,-1,-1],"loss_changes":[3.7606712E1,1.7672451E1,1.220606E1,9.230918E0,6.8549194E0,9.254916E0,8.223278E0,7.7137556E0,7.820654E0,8.002949E0,5.2227097E0,3.0883856E0,6.9333234E0,6.5706987E0,4.4139385E0,0E0,0E0,0E0,0E0,0E0,0E0,0E0,0E0,0E0,0E0,0E0,0E0,0E0,0E0,0E0,0E0],"parents":[2147483647,0,0,1,1,2,2,3,3,4,4,5,5,6,6,7,7,8,8,9,9,10,10,11,11,12,12,13,13,14,14],"right_children":[2,4,6,8,10,12,14,16,18,20,22,24,26,28,30,-1,-1,-1,-1,-1,-1,-1,-1,-1,-1,-1,-1,-1,-1,-1,-1],"split_conditions":[2.4045669E-1,3.610975E-1,7.3576665E-1,6.9632363E-1,8.6493415E-1,5.013612E-2,7.0207113E-1,8.994981E-1,4.6948814E-1,2.7941885E1,5.2022062E-2,2.0446415E-1,2.8320683E-2,2.905118E-1,1.3494897E-1,-8.697701E-3,3.3256497E-2,4.305017E-2,3.3964596E-3,-1.924912E-2,2.4401636E-5,-1.61035E-2,-5.247752E-2,-6.1397385E-3,5.959664E-2,5.351702E-2,3.0341318E-3,-1.09183295E-2,2.9298022E-2,-4.926872E-3,5.9033986E-2],"split_indices":[4,20,10,10,3,20,4,23,22,1,24,13,3,16,8,0,0,0,0,0,0,0,0,0,0,0,0,0,0,0,0],"split_type":[0,0,0,0,0,0,0,0,0,0,0,0,0,0,0,0,0,0,0,0,0,0,0,0,0,0,0,0,0,0,0],"sum_hessian":[7.388453E2,4.5360828E2,2.8523697E2,1.5822356E2,2.9538474E2,2.1012044E2,7.511651E1,1.0885362E2,4.936993E1,2.5421242E2,4.1172325E1,1.1622697E1,1.9849774E2,4.7765186E1,2.7351324E1,9.751486E1,1.1338765E1,2.228483E1,2.7085102E1,1.7698482E2,7.722759E1,2.0299923E1,2.08724E1,1.9344285E0,9.688268E0,6.058974E0,1.9243877E2,1.3677039E1,3.4088146E1,2.851788E0,2.4499537E1],"tree_param":{"num_deleted":"0","num_feature":"25","num_nodes":"31","size_leaf_vector":"1"}},{"base_weights":[1.966738E-7,-3.7060353E-1,4.1705722E-1,2.4925016E-2,-5.795424E-1,6.8845123E-1,-8.3457315E-3,-1.7108412E-1,5.745805E-1,-9.920087E-1,-4.535354E-1,3.7817436E-1,9.645884E-1,-2.6893628E-1,4.4619462E-1,-1.8696543E-2,1.4884347E-2,1.2547545E-2,6.226788E-2,2.4786845E-2,-5.2290507E-2,-2.849226E-2,5.9623457E-3,-5.1311097E-5,3.4478556E-2,6.181928E-2,4.0332954E-2,-2.61105E-2,1.2694249E-2,5.7814654E-2,6.25174E-3],"categories":[],"categories_nodes":[],"categories_segments":[],"categories_sizes":[],"default_left":[0,0,0,0,0,0,0,0,0,0,0,0,0,0,0,0,0,0,0,0,0,0,0,0,0,0,0,0,0,0,0],"id":19,"left_children":[1,3,5,7,9,11,13,15,17,19,21,23,25,27,29,-1,-1,-1,-1,-1,-1,-1,-1,-1,-1,-1,-1,-1,-1,-1,-1],"loss_changes":[1.1367703E2,3.219703E1,3.995777E1,1.4703902E1,1.2795998E1,1.7737404E1,1.6201818E1,9.686878E0,7.4732E0,5.224701E0,1.3196243E1,1.1942854E1,3.773529E0,1.1642256E1,1.1223989E1,0E0,0E0,0E0,0E0,0E0,0E0,0E0,0E0,0E0,0E0,0E0,0E0,0E0,0E0,0E0,0E0],"parents":[2147483647,0,0,1,1,2,2,3,3,4,4,5,5,6,6,7,7,8,8,9,9,10,10,11,11,12,12,13,13,14,14],"right_children":[2,4,6,8,10,12,14,16,18,20,22,24,26,28,30,-1,-1,-1,-1,-1,-1,-1,-1,-1,-1,-1,-1,-1,-1,-1,-1],"split_conditions":[1.0834772E2,3.5564223E-1,6.1516947E-1,5.2518284E-1,2.621155E1,-8.431109E-2,1.6737932E2,7.2178483E-1,7.805173E1,2.676154E-2,8.295071E-1,4.4620383E-1,3.5788953E-1,2.4045669E-1,1.245531E1,-1.8696543E-2,1.4884347E-2,1.2547545E-2,6.226788E-2,2.4786845E-2,-5.2290507E-2,-2.849226E-2,5.9623457E-3,-5.1311097E-5,3.4478556E-2,6.181928E-2,4.0332954E-2,-2.61105E-2,1.2694249E-2,5.7814654E-2,6.25174E-3],"split_indices":[0,5,5,4,0,4,0,10,0,20,10,10,20,4,1,0,0,0,0,0,0,0,0,0,0,0,0,0,0,0,0],"split_type":[0,0,0,0,0,0,0,0,0,0,0,0,0,0,0,0,0,0,0,0,0,0,0,0,0,0,0,0,0,0,0],"sum_hessian":[7.3347437E2,3.8842493E2,3.450494E2,1.3456654E2,2.538584E2,2.1027931E2,1.3477008E2,9.970141E1,3.486514E1,5.779663E1,1.9606177E2,1.0013447E2,1.1014485E2,8.592E1,4.8850086E1,6.9730095E1,2.9971308E1,2.4445194E1,1.0419945E1,1.7304748E0,5.6066154E1,1.6297334E2,3.308842E1,4.5600986E1,5.4533478E1,3.7969845E1,7.2175E1,5.7881336E1,2.8038664E1,1.4403329E1,3.444676E1],"tree_param":{"num_deleted":"0","num_feature":"25","num_nodes":"31","size_leaf_vector":"1"}},{"base_weights":[1.0205332E-2,-4.1053864E-1,3.801273E-1,-1.1847401E-1,-7.187796E-1,8.024169E-1,2.0096196E-1,-4.9692243E-1,1.3263492E-1,-9.178816E-1,-3.9308807E-1,3.5148066E-1,9.7180784E-1,3.6669087E-2,5.649426E-1,5.9096884E-2,-2.7308038E-2,5.591845E-6,4.8661105E-2,2.184289E-2,-4.7035944E-2,-2.7136186E-2,2.9441176E-2,5.7916176E-2,-2.1967171E-4,-6.2015667E-3,4.9748365E-2,-1.838002E-2,1.1021792E-2,-2.7883029E-2,3.2139726E-2],"categories":[],"categories_nodes":[],"categories_segments":[],"categories_sizes":[],"default_left":[0,0,0,0,0,0,0,0,0,0,0,0,0,0,0,0,0,0,0,0,0,0,0,0,0,0,0,0,0,0,0],"id":20,"left_children":[1,3,5,7,9,11,13,15,17,19,21,23,25,27,29,-1,-1,-1,-1,-1,-1,-1,-1,-1,-1,-1,-1,-1,-1,-1,-1],"loss_changes":[1.1503432E2,3.1046368E1,2.9594627E1,1.7053694E1,1.053627E1,8.581711E0,1.6571562E1,6.5569763E0,1.2058355E1,3.6144028E0,9.944025E0,9.614454E0,2.2642365E0,1.4363029E1,7.8940105E0,0E0,0E0,0E0,0E0,0E0,0E0,0E0,0E0,0E0,0E0,0E0,0E0,0E0,0E0,0E0,0E0],"parents":[2147483647,0,0,1,1,2,2,3,3,4,4,5,5,6,6,7,7,8,8,9,9,10,10,11,11,12,12,13,13,14,14],"right_children":[2,4,6,8,10,12,14,16,18,20,22,24,26,28,30,-1,-1,-1,-1,-1,-1,-1,-1,-1,-1,-1,-1,-1,-1,-1,-1],"split_conditions":[9.796485E1,5.130956E-1,3.0053875E-1,3.7929276E1,2.7926505E-1,1.23708046E2,1.68491E2,3.556315E-2,7.946585E-1,1.3255714E-2,8.680769E-1,9.143536E-2,1.8331627E1,-4.3460548E-1,5.4557107E-2,5.9096884E-2,-2.7308038E-2,5.591845E-6,4.8661105E-2,2.184289E-2,-4.7035944E-2,-2.7136186E-2,2.9441176E-2,5.7916176E-2,-2.1967171E-4,-6.2015667E-3,4.9748365E-2,-1.838002E-2,1.1021792E-2,-2.7883029E-2,3.2139726E-2],"split_indices":[0,5,5,0,4,0,0,8,4,8,21,5,2,4,16,0,0,0,0,0,0,0,0,0,0,0,0,0,0,0,0],"split_type":[0,0,0,0,0,0,0,0,0,0,0,0,0,0,0,0,0,0,0,0,0,0,0,0,0,0,0,0,0,0,0],"sum_hessian":[7.370909E2,3.448049E2,3.9228598E2,1.7775899E2,1.6704593E2,1.1582048E2,2.7646548E2,7.051154E1,1.0724745E2,1.0254176E2,6.450416E1,3.2466427E1,8.335405E1,1.9124324E2,8.522226E1,1.3536093E0,6.915793E1,9.350588E1,1.3741572E1,1.399379E0,1.0114238E2,5.636227E1,8.141889E0,9.246886E0,2.3219542E1,1.6350002E0,8.171905E1,5.9452656E1,1.3179059E2,5.1271424E0,8.0095116E1],"tree_param":{"num_deleted":"0","num_feature":"25","num_nodes":"31","size_leaf_vector":"1"}},{"base_weights":[1.9518996E-2,-2.7231133E-1,3.9891997E-1,-5.095221E-1,3.9071713E-2,2.5171015E-1,7.143221E-1,-1.1829334E-1,-7.362317E-1,-5.133552E-1,1.7306265E-1,1.0129765E0,1.7423105E-1,4.8861903E-1,1.0823764E0,-3.4487095E-2,1.1398154E-2,-2.932024E-2,-5.0567336E-2,4.971623E-2,-2.9748807E-2,-3.514807E-2,1.3024777E-2,6.644913E-2,-2.4770228E-2,1.2978444E-2,-1.942251E-2,-1.9943563E-2,3.2559287E-2,-4.6862625E-2,5.876657E-2],"categories":[],"categories_nodes":[],"categories_segments":[],"categories_sizes":[],"default_left":[0,0,0,0,0,0,0,0,0,0,0,0,0,0,0,0,0,0,0,0,0,0,0,0,0,0,0,0,0,0,0],"id":21,"left_children":[1,3,5,7,9,11,13,15,17,19,21,23,25,27,29,-1,-1,-1,-1,-1,-1,-1,-1,-1,-1,-1,-1,-1,-1,-1,-1],"loss_changes":[7.949572E1,2.9998625E1,1.4312771E1,2.0352047E1,1.3147839E1,1.2466587E1,7.677063E0,1.7121658E1,5.4128876E0,4.860588E0,1.1115586E1,9.9976425E0,9.500872E0,9.357132E0,7.9964676E0,0E0,0E0,0E0,0E0,0E0,0E0,0E0,0E0,0E0,0E0,0E0,0E0,0E0,0E0,0E0,0E0],"parents":[2147483647,0,0,1,1,2,2,3,3,4,4,5,5,6,6,7,7,8,8,9,9,10,10,11,11,12,12,13,13,14,14],"right_children":[2,4,6,8,10,12,14,16,18,20,22,24,26,28,30,-1,-1,-1,-1,-1,-1,-1,-1,-1,-1,-1,-1,-1,-1,-1,-1],"split_conditions":[1.1537219E2,2.1242669E-1,3.623184E-1,3.539889E-1,2.545524E1,7.9292804E-2,1.6936676E2,4.438013E1,6.41903E-1,-9.0545213E-1,1.0319838E-1,3.4554375E1,8.9390004E-1,1.4871982E-1,-9.4093513E-1,-3.4487095E-2,1.1398154E-2,-2.932024E-2,-5.0567336E-2,4.971623E-2,-2.9748807E-2,-3.514807E-2,1.3024777E-2,6.644913E-2,-2.4770228E-2,1.2978444E-2,-1.942251E-2,-1.9943563E-2,3.2559287E-2,-4.6862625E-2,5.876657E-2],"split_indices":[0,4,4,15,0,15,0,0,20,9,10,1,20,3,19,0,0,0,0,0,0,0,0,0,0,0,0,0,0,0,0],"split_type":[0,0,0,0,0,0,0,0,0,0,0,0,0,0,0,0,0,0,0,0,0,0,0,0,0,0,0,0,0,0,0],"sum_hessian":[7.160031E2,4.0486694E2,3.1113617E2,2.2944218E2,1.7542476E2,2.1335403E2,9.778214E1,8.473619E1,1.44706E2,3.3690796E1,1.4173396E2,1.8593222E1,1.947608E2,6.205533E1,3.572681E1,3.1597263E1,5.3138927E1,9.5712654E1,4.899334E1,1.1559622E0,3.2534836E1,1.2223363E1,1.295106E2,1.5470984E1,3.122238E0,1.6958044E2,2.5180357E1,9.382182E0,5.2673145E1,1.1723498E0,3.4554462E1],"tree_param":{"num_deleted":"0","num_feature":"25","num_nodes":"31","size_leaf_vector":"1"}},{"base_weights":[1.4265848E-3,-4.9440637E-1,2.608496E-1,-6.35191E-1,-7.854729E-2,7.893001E-2,5.842531E-1,-7.264194E-1,3.6329947E-2,2.9849076E-1,-6.236388E-1,-1.4816608E-1,3.4349617E-1,-3.7426442E-1,6.5299463E-1,-3.8073484E-2,7.090801E-3,6.6614866E-2,-6.583446E-3,4.2201795E-2,-6.7696907E-3,-4.777236E-2,1.4631501E-2,9.858061E-3,-1.9246686E-2,1.1411981E-2,4.5098633E-2,1.8441847E-2,-4.6025258E-2,3.8281046E-2,1.2043986E-2],"categories":[],"categories_nodes":[],"categories_segments":[],"categories_sizes":[],"default_left":[0,0,0,0,0,0,0,0,0,0,0,0,0,0,0,0,0,0,0,0,0,0,0,0,0,0,0,0,0,0,0],"id":22,"left_children":[1,3,5,7,9,11,13,15,17,19,21,23,25,27,29,-1,-1,-1,-1,-1,-1,-1,-1,-1,-1,-1,-1,-1,-1,-1,-1],"loss_changes":[9.17595E1,1.4295898E1,2.7506899E1,1.12323E1,1.3157337E1,1.8128326E1,1.1343109E1,5.0102005E0,5.14605E0,9.105311E0,8.223649E0,1.3370744E1,8.759062E0,5.1728926E0,7.127571E0,0E0,0E0,0E0,0E0,0E0,0E0,0E0,0E0,0E0,0E0,0E0,0E0,0E0,0E0,0E0,0E0],"parents":[2147483647,0,0,1,1,2,2,3,3,4,4,5,5,6,6,7,7,8,8,9,9,10,10,11,11,12,12,13,13,14,14],"right_children":[2,4,6,8,10,12,14,16,18,20,22,24,26,28,30,-1,-1,-1,-1,-1,-1,-1,-1,-1,-1,-1,-1,-1,-1,-1,-1],"split_conditions":[7.32671E1,7.430177E-1,1.5547174E2,8.048045E-1,5.687805E-1,7.935982E-2,7.5232625E-2,9.622923E-1,4.178028E-2,5.0105166E-1,5.830262E-1,4.1088057E-1,8.56982E-1,5.134028E-1,8.0106246E-1,-3.8073484E-2,7.090801E-3,6.6614866E-2,-6.583446E-3,4.2201795E-2,-6.7696907E-3,-4.777236E-2,1.4631501E-2,9.858061E-3,-1.9246686E-2,1.1411981E-2,4.5098633E-2,1.8441847E-2,-4.6025258E-2,3.8281046E-2,1.2043986E-2],"split_indices":[0,10,0,4,15,4,10,22,18,21,4,15,4,15,11,0,0,0,0,0,0,0,0,0,0,0,0,0,0,0,0],"split_type":[0,0,0,0,0,0,0,0,0,0,0,0,0,0,0,0,0,0,0,0,0,0,0,0,0,0,0,0,0,0,0],"sum_hessian":[7.113548E2,2.4403226E2,4.6732257E2,1.8191833E2,6.2113914E1,2.998796E2,1.6744296E2,1.6008809E2,2.1830256E1,3.6984356E1,2.5129559E1,1.6160362E2,1.3827599E2,1.0907442E1,1.565355E2,1.5399437E2,6.0937166E0,1.7098482E0,2.0120407E1,1.59652E1,2.1019156E1,1.8417332E1,6.712226E0,6.580046E1,9.5803154E1,1.1578859E2,2.2487392E1,4.758623E0,6.148819E0,1.22264305E2,3.427121E1],"tree_param":{"num_deleted":"0","num_feature":"25","num_nodes":"31","size_leaf_vector":"1"}},{"base_weights":[-1.05916485E-2,-2.215139E-1,5.120602E-1,-1.7245054E-3,-5.8402556E-1,8.9501333E-1,2.9179466E-1,-4.4314465E-1,1.7602172E-1,-6.9266397E-1,-3.0089516E-2,-2.9597554E-1,9.9729174E-1,6.0406095E-1,7.7557124E-2,4.330659E-2,-2.548466E-2,1.9611733E-2,-7.2707757E-3,1.2412677E-2,-3.6896825E-2,2.184616E-2,-2.7898172E-2,4.7568906E-2,-4.02318E-2,-1.6278192E-2,5.266114E-2,-1.0564136E-2,3.6582552E-2,-3.693296E-2,1.2039746E-2],"categories":[],"categories_nodes":[],"categories_segments":[],"categories_sizes":[],"default_left":[0,0,0,0,0,0,0,0,0,0,0,0,0,0,0,0,0,0,0,0,0,0,0,0,0,0,0,0,0,0,0],"id":23,"left_children":[1,3,5,7,9,11,13,15,17,19,21,23,25,27,29,-1,-1,-1,-1,-1,-1,-1,-1,-1,-1,-1,-1,-1,-1,-1,-1],"loss_changes":[7.951431E1,4.0941837E1,1.7233036E1,2.5256844E1,1.1651154E1,9.461224E0,8.860729E0,8.493097E0,1.6007097E1,7.0886383E0,8.341387E0,5.0305395E0,5.4869614E0,5.7755165E0,1.0852497E1,0E0,0E0,0E0,0E0,0E0,0E0,0E0,0E0,0E0,0E0,0E0,0E0,0E0,0E0,0E0,0E0],"parents":[2147483647,0,0,1,1,2,2,3,3,4,4,5,5,6,6,7,7,8,8,9,9,10,10,11,11,12,12,13,13,14,14],"right_children":[2,4,6,8,10,12,14,16,18,20,22,24,26,28,30,-1,-1,-1,-1,-1,-1,-1,-1,-1,-1,-1,-1,-1,-1,-1,-1],"split_conditions":[1.4483833E2,6.1516947E-1,3.8294148E-1,4.438013E1,6.970524E-1,-8.212226E-1,3.9432305E-1,3.4251846E-2,5.935258E-1,5.2615665E-2,5.280064E-1,2.754743E-1,2.9252924E-2,-7.5144964E-1,1.5966932E-1,4.330659E-2,-2.548466E-2,1.9611733E-2,-7.2707757E-3,1.2412677E-2,-3.6896825E-2,2.184616E-2,-2.7898172E-2,4.7568906E-2,-4.02318E-2,-1.6278192E-2,5.266114E-2,-1.0564136E-2,3.6582552E-2,-3.693296E-2,1.2039746E-2],"split_indices":[0,5,5,0,4,4,20,20,15,23,15,20,11,4,7,0,0,0,0,0,0,0,0,0,0,0,0,0,0,0,0],"split_type":[0,0,0,0,0,0,0,0,0,0,0,0,0,0,0,0,0,0,0,0,0,0,0,0,0,0,0,0,0,0,0],"sum_hessian":[7.192619E2,5.1286536E2,2.0639659E2,3.1990997E2,1.9295538E2,7.424723E1,1.3214935E2,9.140902E1,2.2850095E2,1.6110825E2,3.1847132E1,5.7220883E0,6.852515E1,5.303196E1,7.911739E1,3.8402808E0,8.756874E1,1.3647891E2,9.2022026E1,7.190091E0,1.5391815E2,1.6989092E1,1.485804E1,1.4053888E0,4.3166995E0,2.58419E0,6.5940956E1,7.087095E0,4.5944866E1,1.2598372E1,6.651902E1],"tree_param":{"num_deleted":"0","num_feature":"25","num_nodes":"31","size_leaf_vector":"1"}},{"base_weights":[1.4654148E-2,-3.7834966E-1,3.0160218E-1,-1.4792484E-1,-7.381665E-1,4.8317492E-1,-1.7173524E-1,-6.5620744E-1,2.3651386E-2,1.4065933E-1,-7.8777E-1,7.3996335E-1,3.1609398E-1,1.2834898E-1,-4.4138122E-1,9.012296E-3,-3.8347647E-2,2.4283612E-2,-9.3085375E-3,-4.4422317E-2,3.0282704E-2,1.5154095E-2,-4.137037E-2,5.0283086E-2,1.4322588E-2,3.0216424E-2,5.3993105E-3,2.6987983E-2,-1.3576055E-2,-3.2212984E-2,-5.9124457E-5],"categories":[],"categories_nodes":[],"categories_segments":[],"categories_sizes":[],"default_left":[0,0,0,0,0,0,0,0,0,0,0,0,0,0,0,0,0,0,0,0,0,0,0,0,0,0,0,0,0,0,0],"id":24,"left_children":[1,3,5,7,9,11,13,15,17,19,21,23,25,27,29,-1,-1,-1,-1,-1,-1,-1,-1,-1,-1,-1,-1,-1,-1,-1,-1],"loss_changes":[8.074917E1,2.4946E1,3.565007E1,1.6190332E1,5.2426987E0,1.2610062E1,9.400301E0,4.4774E0,1.36263685E1,3.9538982E0,5.0755463E0,1.3841049E1,1.0918083E1,9.264811E0,5.451084E0,0E0,0E0,0E0,0E0,0E0,0E0,0E0,0E0,0E0,0E0,0E0,0E0,0E0,0E0,0E0,0E0],"parents":[2147483647,0,0,1,1,2,2,3,3,4,4,5,5,6,6,7,7,8,8,9,9,10,10,11,11,12,12,13,13,14,14],"right_children":[2,4,6,8,10,12,14,16,18,20,22,24,26,28,30,-1,-1,-1,-1,-1,-1,-1,-1,-1,-1,-1,-1,-1,-1,-1,-1],"split_conditions":[8.942511E1,6.122976E-1,7.262131E-1,2.3420713E1,4.2488143E-2,4.1088057E-1,4.8084116E-1,-7.949318E-1,3.272309E-1,2.2358412E-1,2.0282786E-2,6.6254544E-1,3.0053875E-1,4.931883E-1,6.781795E-1,9.012296E-3,-3.8347647E-2,2.4283612E-2,-9.3085375E-3,-4.4422317E-2,3.0282704E-2,1.5154095E-2,-4.137037E-2,5.0283086E-2,1.4322588E-2,3.0216424E-2,5.3993105E-3,2.6987983E-2,-1.3576055E-2,-3.2212984E-2,-5.9124457E-5],"split_indices":[0,5,5,0,23,15,20,19,20,16,15,20,5,15,23,0,0,0,0,0,0,0,0,0,0,0,0,0,0,0,0],"split_type":[0,0,0,0,0,0,0,0,0,0,0,0,0,0,0,0,0,0,0,0,0,0,0,0,0,0,0,0,0,0,0],"sum_hessian":[7.140294E2,3.0119476E2,4.1283463E2,1.8447136E2,1.1672339E2,2.983619E2,1.14472725E2,4.5842266E1,1.3862909E2,6.1381454E0,1.1058524E2,1.1625681E2,1.821051E2,5.442648E1,6.004625E1,5.286454E0,4.0555813E1,4.2884426E1,9.574467E1,1.6269011E0,4.5112443E0,3.6443176E0,1.06940926E2,7.2540245E1,4.3716576E1,7.555526E1,1.06549835E2,2.6653696E1,2.7772781E1,4.07855E1,1.9260752E1],"tree_param":{"num_deleted":"0","num_feature":"25","num_nodes":"31","size_leaf_vector":"1"}},{"base_weights":[-3.745576E-2,3.5838223E-1,-2.0692639E-1,6.5315133E-1,2.0103098E-1,-3.2746127E-1,2.2502516E-1,-3.5427354E-2,7.0411724E-1,-2.883033E-1,3.1210425E-1,-2.34587E-1,-7.55613E-1,-7.45775E-2,4.4618708E-1,4.8030924E-2,1.8195525E-2,3.798303E-2,-2.9324507E-2,8.948747E-3,3.9813038E-2,2.9776884E-2,-1.3967118E-2,-4.4273943E-2,-1.5208614E-2,-4.563799E-2,6.700979E-3,2.7868306E-2,-2.635554E-2],"categories":[],"categories_nodes":[],"categories_segments":[],"categories_sizes":[],"default_left":[0,0,0,0,0,0,0,0,0,0,0,0,0,0,0,0,0,0,0,0,0,0,0,0,0,0,0,0,0],"id":25,"left_children":[1,3,5,7,9,11,13,-1,15,17,19,21,23,25,27,-1,-1,-1,-1,-1,-1,-1,-1,-1,-1,-1,-1,-1,-1],"loss_changes":[4.7709255E1,9.759283E0,2.5994476E1,5.618517E0,7.7248707E0,1.5316662E1,7.269484E0,0E0,5.899315E0,8.728529E0,7.2675905E0,1.2116066E1,3.7761917E0,8.381195E0,7.108021E0,0E0,0E0,0E0,0E0,0E0,0E0,0E0,0E0,0E0,0E0,0E0,0E0,0E0,0E0],"parents":[2147483647,0,0,1,1,2,2,3,3,4,4,5,5,6,6,8,8,9,9,10,10,11,11,12,12,13,13,14,14],"right_children":[2,4,6,8,10,12,14,-1,16,18,20,22,24,26,28,-1,-1,-1,-1,-1,-1,-1,-1,-1,-1,-1,-1,-1,-1],"split_conditions":[3.0053875E-1,3.7610564E-1,5.754604E-1,1.8492172E1,1.5555283E-1,8.31686E-1,-1.405216E-1,-3.5427354E-2,6.1634177E-1,1.4663091E-1,6.049687E-1,3.501804E-2,2.1242669E-1,-6.270028E-1,9.194057E-1,4.8030924E-2,1.8195525E-2,3.798303E-2,-2.9324507E-2,8.948747E-3,3.9813038E-2,2.9776884E-2,-1.3967118E-2,-4.4273943E-2,-1.5208614E-2,-4.563799E-2,6.700979E-3,2.7868306E-2,-2.635554E-2],"split_indices":[5,20,4,2,6,15,9,0,15,7,4,15,4,19,5,0,0,0,0,0,0,0,0,0,0,0,0,0,0],"split_type":[0,0,0,0,0,0,0,0,0,0,0,0,0,0,0,0,0,0,0,0,0,0,0,0,0,0,0,0,0],"sum_hessian":[7.0909283E2,2.122407E2,4.9685214E2,7.276943E1,1.3947128E2,3.88644E2,1.08208145E2,2.1598763E0,7.060955E1,2.5506512E1,1.1396476E2,3.2063916E2,6.8004845E1,4.6236065E1,6.1972076E1,3.9217564E1,3.1391989E1,5.3071566E0,2.0199356E1,9.046038E1,2.3504385E1,1.5773061E1,3.048661E2,5.2065678E1,1.5939168E1,8.541002E0,3.7695065E1,5.6002323E1,5.969756E0],"tree_param":{"num_deleted":"0","num_feature":"25","num_nodes":"29","size_leaf_vector":"1"}},{"base_weights":[-2.4378933E-2,-4.3215445E-1,1.9040956E-1,-5.7910234E-1,1.4392925E-2,3.8602573E-1,-3.1432438E-1,-2.0518208E-1,-7.7436167E-1,5.292769E-1,-2.8814968E-1,1.9875798E-1,6.359935E-1,-5.757946E-1,1.6249651E-2,-2.9568845E-2,1.15537E-3,-2.548531E-2,-4.8581623E-2,-1.1331118E-2,4.1708197E-2,-3.164859E-2,8.8596E-3,1.8511245E-2,-8.286473E-3,-3.339183E-2,3.5019312E-2,-3.469798E-2,5.6020837E-2,-3.766295E-2,8.7661315E-3],"categories":[],"categories_nodes":[],"categories_segments":[],"categories_sizes":[],"default_left":[0,0,0,0,0,0,0,0,0,0,0,0,0,0,0,0,0,0,0,0,0,0,0,0,0,0,0,0,0,0,0],"id":26,"left_children":[1,3,5,7,9,11,13,15,17,19,21,23,25,27,29,-1,-1,-1,-1,-1,-1,-1,-1,-1,-1,-1,-1,-1,-1,-1,-1],"loss_changes":[6.192078E1,1.6012375E1,4.5849373E1,1.3240883E1,9.711284E0,1.5519226E1,1.1238388E1,5.684484E0,5.7807007E0,5.5044384E0,6.418084E0,1.2094282E1,1.2448116E1,1.5322035E1,7.2742186E0,0E0,0E0,0E0,0E0,0E0,0E0,0E0,0E0,0E0,0E0,0E0,0E0,0E0,0E0,0E0,0E0],"parents":[2147483647,0,0,1,1,2,2,3,3,4,4,5,5,6,6,7,7,8,8,9,9,10,10,11,11,12,12,13,13,14,14],"right_children":[2,4,6,8,10,12,14,16,18,20,22,24,26,28,30,-1,-1,-1,-1,-1,-1,-1,-1,-1,-1,-1,-1,-1,-1,-1,-1],"split_conditions":[7.32671E1,5.561824E-1,7.262131E-1,3.2365853E-1,1.2901457E1,1.03016734E-1,1.4920285E2,-2.918702E-1,4.0232056E-1,3.0408958E-1,5.391764E-1,6.863451E-1,4.9634058E-2,9.0463424E-1,-7.7336556E-1,-2.9568845E-2,1.15537E-3,-2.548531E-2,-4.8581623E-2,-1.1331118E-2,4.1708197E-2,-3.164859E-2,8.8596E-3,1.8511245E-2,-8.286473E-3,-3.339183E-2,3.5019312E-2,-3.469798E-2,5.6020837E-2,-3.766295E-2,8.7661315E-3],"split_indices":[0,4,5,5,1,4,0,19,15,16,21,20,13,4,4,0,0,0,0,0,0,0,0,0,0,0,0,0,0,0,0],"split_type":[0,0,0,0,0,0,0,0,0,0,0,0,0,0,0,0,0,0,0,0,0,0,0,0,0,0,0,0,0,0,0],"sum_hessian":[7.050359E2,2.4289265E2,4.6214322E2,1.8252972E2,6.0362938E1,3.332306E2,1.2891263E2,6.332109E1,1.19208626E2,2.206391E1,3.829903E1,1.9153438E2,1.4169621E2,7.1565506E1,5.7347122E1,2.2933784E1,4.0387306E1,5.243987E1,6.676876E1,6.4153023E0,1.5648607E1,2.1791279E1,1.6507751E1,1.3024643E2,6.128796E1,6.2276125E0,1.354686E2,6.7457054E1,4.108457E0,9.184105E0,4.8163013E1],"tree_param":{"num_deleted":"0","num_feature":"25","num_nodes":"31","size_leaf_vector":"1"}},{"base_weights":[-7.025429E-4,-3.1320447E-1,3.412549E-1,-6.202334E-1,-1.6808057E-1,1.8696271E-1,6.2875295E-1,7.098209E-1,-6.727269E-1,8.496014E-2,-4.4890884E-1,-1.3849347E-2,3.8928676E-1,-2.8876737E-2,7.8548384E-1,6.527269E-2,-3.8658515E-2,-4.102052E-2,-1.5073619E-2,1.681318E-2,-1.3208779E-2,-3.68961E-2,-2.7828927E-3,1.8422026E-2,-1.22991875E-2,2.6518404E-2,-4.985237E-3,-2.710194E-2,2.2036865E-2,1.0896846E-2,4.4153955E-2],"categories":[],"categories_nodes":[],"categories_segments":[],"categories_sizes":[],"default_left":[0,0,0,0,0,0,0,0,0,0,0,0,0,0,0,0,0,0,0,0,0,0,0,0,0,0,0,0,0,0,0],"id":27,"left_children":[1,3,5,7,9,11,13,15,17,19,21,23,25,27,29,-1,-1,-1,-1,-1,-1,-1,-1,-1,-1,-1,-1,-1,-1,-1,-1],"loss_changes":[7.519717E1,1.6278355E1,1.478727E1,8.690918E0,1.7877102E1,8.947123E0,1.207423E1,5.3845444E0,5.9858093E0,1.1748706E1,1.3500278E1,9.978272E0,7.6182346E0,5.8943467E0,5.039505E0,0E0,0E0,0E0,0E0,0E0,0E0,0E0,0E0,0E0,0E0,0E0,0E0,0E0,0E0,0E0,0E0],"parents":[2147483647,0,0,1,1,2,2,3,3,4,4,5,5,6,6,7,7,8,8,9,9,10,10,11,11,12,12,13,13,14,14],"right_children":[2,4,6,8,10,12,14,16,18,20,22,24,26,28,30,-1,-1,-1,-1,-1,-1,-1,-1,-1,-1,-1,-1,-1,-1,-1,-1],"split_conditions":[1.0834772E2,3.6761623E1,2.5474444E-1,2.676154E-2,5.195729E-1,4.9904495E-1,1.6470525E-1,2.7252645E1,4.6176648E-1,6.2689894E-1,2.6199412E-1,3.7395698E-1,7.863755E-1,4.0689954E-1,-7.0437855E-1,6.527269E-2,-3.8658515E-2,-4.102052E-2,-1.5073619E-2,1.681318E-2,-1.3208779E-2,-3.68961E-2,-2.7828927E-3,1.8422026E-2,-1.22991875E-2,2.6518404E-2,-4.985237E-3,-2.710194E-2,2.2036865E-2,1.0896846E-2,4.4153955E-2],"split_indices":[0,0,4,20,15,10,10,2,4,20,4,15,20,13,19,0,0,0,0,0,0,0,0,0,0,0,0,0,0,0,0],"split_type":[0,0,0,0,0,0,0,0,0,0,0,0,0,0,0,0,0,0,0,0,0,0,0,0,0,0,0,0,0,0,0],"sum_hessian":[7.0168225E2,3.666755E2,3.3500674E2,1.1663814E2,2.5003737E2,2.1908191E2,1.1592483E2,3.953149E0,1.1268499E2,1.3189272E2,1.1814465E2,1.1041931E2,1.0866259E2,2.2467754E1,9.345707E1,2.9057794E0,1.0473697E0,7.975068E1,3.293431E1,7.671274E1,5.5179977E1,6.759235E1,5.055231E1,4.1495457E1,6.892386E1,8.426598E1,2.4396608E1,1.0662396E1,1.1805358E1,1.4187184E1,7.926989E1],"tree_param":{"num_deleted":"0","num_feature":"25","num_nodes":"31","size_leaf_vector":"1"}},{"base_weights":[-9.639067E-4,-3.3400655E-1,2.3844127E-1,-1.446601E-1,-6.4114606E-1,1.154436E-1,5.4858905E-1,-3.0285567E-1,2.516007E-1,-3.4522173E-1,-9.0840876E-1,-1.9212888E-1,2.3327996E-1,3.5765034E-1,9.630557E-1,2.4853744E-2,-1.8319566E-2,2.5459245E-2,-1.334382E-2,-3.516872E-2,-1.7771636E-3,2.2133166E-2,-4.7991242E-2,-1.0256263E-3,-3.5932165E-2,-2.131974E-2,1.5301349E-2,5.5072404E-2,1.1220567E-2,-1.7413473E-2,5.4560017E-2],"categories":[],"categories_nodes":[],"categories_segments":[],"categories_sizes":[],"default_left":[0,0,0,0,0,0,0,0,0,0,0,0,0,0,0,0,0,0,0,0,0,0,0,0,0,0,0,0,0,0,0],"id":28,"left_children":[1,3,5,7,9,11,13,15,17,19,21,23,25,27,29,-1,-1,-1,-1,-1,-1,-1,-1,-1,-1,-1,-1,-1,-1,-1,-1],"loss_changes":[5.5977207E1,1.698248E1,1.551819E1,1.1543326E1,8.519463E0,1.0690725E1,8.813377E0,6.8496904E0,7.1791935E0,6.032273E0,4.4589005E0,7.386673E0,1.0343747E1,7.7617016E0,6.413677E0,0E0,0E0,0E0,0E0,0E0,0E0,0E0,0E0,0E0,0E0,0E0,0E0,0E0,0E0,0E0,0E0],"parents":[2147483647,0,0,1,1,2,2,3,3,4,4,5,5,6,6,7,7,8,8,9,9,10,10,11,11,12,12,13,13,14,14],"right_children":[2,4,6,8,10,12,14,16,18,20,22,24,26,28,30,-1,-1,-1,-1,-1,-1,-1,-1,-1,-1,-1,-1,-1,-1,-1,-1],"split_conditions":[8.8788574E1,6.227696E-1,1.68491E2,5.5082244E-1,4.7796342E-1,-4.6805072E-1,3.415861E-1,7.500936E-2,6.669366E-1,-1.842086E-2,-9.339521E-1,-5.98204E-1,9.563543E-2,6.9460382E0,1.7109831E2,2.4853744E-2,-1.8319566E-2,2.5459245E-2,-1.334382E-2,-3.516872E-2,-1.7771636E-3,2.2133166E-2,-4.7991242E-2,-1.0256263E-3,-3.5932165E-2,-2.131974E-2,1.5301349E-2,5.5072404E-2,1.1220567E-2,-1.7413473E-2,5.4560017E-2],"split_indices":[0,20,0,4,18,4,4,22,12,19,14,4,13,1,0,0,0,0,0,0,0,0,0,0,0,0,0,0,0,0,0],"split_type":[0,0,0,0,0,0,0,0,0,0,0,0,0,0,0,0,0,0,0,0,0,0,0,0,0,0,0,0,0,0,0],"sum_hessian":[7.00067E2,2.9261194E2,4.0745505E2,1.8192758E2,1.1068436E2,2.927351E2,1.1471996E2,1.301891E2,5.1738487E1,5.3613243E1,5.7071114E1,8.0911674E1,2.1182341E2,7.981381E1,3.4906147E1,9.07749E0,1.2111161E2,3.4577827E1,1.716066E1,2.427136E1,2.9341883E1,1.8132966E0,5.5257816E1,6.1805313E1,1.9106363E1,2.0556286E1,1.9126714E2,1.1021321E1,6.8792496E1,2.9545002E0,3.1951649E1],"tree_param":{"num_deleted":"0","num_feature":"25","num_nodes":"31","size_leaf_vector":"1"}},{"base_weights":[1.6188454E-2,-2.4378726E-1,3.4580386E-1,9.958955E-2,-4.250333E-1,7.7045566E-1,1.0708316E-1,-7.819113E-1,2.0810972E-1,-6.071246E-1,-1.2597704E-1,5.038653E-1,9.668421E-1,-9.751507E-3,6.829126E-1,-8.062613E-3,-5.7092737E-2,-2.1516737E-2,1.7445924E-2,-1.795539E-2,-4.4570457E-2,-1.3584909E-2,3.7038703E-2,3.6898058E-2,-8.720614E-3,6.4028106E-3,5.1980376E-2,-1.4002728E-2,1.5836699E-2,1.0897691E-2,5.0483156E-2],"categories":[],"categories_nodes":[],"categories_segments":[],"categories_sizes":[],"default_left":[0,0,0,0,0,0,0,0,0,0,0,0,0,0,0,0,0,0,0,0,0,0,0,0,0,0,0,0,0,0,0],"id":29,"left_children":[1,3,5,7,9,11,13,15,17,19,21,23,25,27,29,-1,-1,-1,-1,-1,-1,-1,-1,-1,-1,-1,-1,-1,-1,-1,-1],"loss_changes":[6.0035267E1,2.4420595E1,3.1231792E1,1.3185694E1,1.3895256E1,5.324188E0,1.3388132E1,3.1965618E0,1.1118179E1,1.0905342E1,1.262476E1,7.9363832E0,3.7014961E0,1.476803E1,4.87912E0,0E0,0E0,0E0,0E0,0E0,0E0,0E0,0E0,0E0,0E0,0E0,0E0,0E0,0E0,0E0,0E0],"parents":[2147483647,0,0,1,1,2,2,3,3,4,4,5,5,6,6,7,7,8,8,9,9,10,10,11,11,12,12,13,13,14,14],"right_children":[2,4,6,8,10,12,14,16,18,20,22,24,26,28,30,-1,-1,-1,-1,-1,-1,-1,-1,-1,-1,-1,-1,-1,-1,-1,-1],"split_conditions":[1.1537219E2,3.2365853E-1,3.909588E-1,1.0319838E-1,3.2111713E-1,-1.3593756E-1,1.8629239E2,-2.5581616E-1,2.3420713E1,5.3056717E-1,8.680769E-1,4.2556912E-1,1.2051135E2,5.3513E-1,4.2599446E-1,-8.062613E-3,-5.7092737E-2,-2.1516737E-2,1.7445924E-2,-1.795539E-2,-4.4570457E-2,-1.3584909E-2,3.7038703E-2,3.6898058E-2,-8.720614E-3,6.4028106E-3,5.1980376E-2,-1.4002728E-2,1.5836699E-2,1.0897691E-2,5.0483156E-2],"split_indices":[0,5,5,10,4,4,0,4,0,15,21,14,0,10,13,0,0,0,0,0,0,0,0,0,0,0,0,0,0,0,0],"split_type":[0,0,0,0,0,0,0,0,0,0,0,0,0,0,0,0,0,0,0,0,0,0,0,0,0,0,0,0,0,0,0],"sum_hessian":[6.9860986E2,3.9070874E2,3.0790112E2,1.3513722E2,2.5557152E2,1.0999949E2,1.9790163E2,1.4132752E1,1.2100446E2,1.5820966E2,9.736186E1,4.8172314E1,6.1827175E1,1.6533795E2,3.2563683E1,5.7191234E0,8.413629E0,2.1493608E1,9.951086E1,8.570323E1,7.250642E1,8.3936676E1,1.3425187E1,3.5746895E1,1.2425419E1,5.155712E0,5.6671463E1,9.052933E1,7.480862E1,1.4127541E1,1.8436142E1],"tree_param":{"num_deleted":"0","num_feature":"25","num_nodes":"31","size_leaf_vector":"1"}},{"base_weights":[-1.3803957E-2,-1.8583573E-1,3.727332E-1,-4.2511024E-2,-5.818573E-1,7.8771794E-1,1.925132E-1,1.7092484E-1,-2.9014146E-1,-6.753468E-1,2.681749E-1,1.1777019E-1,9.6834993E-1,4.938336E-1,-6.922935E-2,-2.4596512E-2,1.5075542E-2,-2.7676402E-2,2.0736218E-3,2.6453352E-3,-3.8198095E-2,4.927824E-2,-2.4163783E-2,4.436047E-2,-2.1354914E-2,5.7609547E-2,2.42312E-2,5.890127E-3,3.8577605E-2,4.751659E-2,-7.7433153E-3],"categories":[],"categories_nodes":[],"categories_segments":[],"categories_sizes":[],"default_left":[0,0,0,0,0,0,0,0,0,0,0,0,0,0,0,0,0,0,0,0,0,0,0,0,0,0,0,0,0,0,0],"id":30,"left_children":[1,3,5,7,9,11,13,15,17,19,21,23,25,27,29,-1,-1,-1,-1,-1,-1,-1,-1,-1,-1,-1,-1,-1,-1,-1,-1],"loss_changes":[4.6178627E1,2.7249157E1,1.5845123E1,1.8754505E1,1.032233E1,7.684166E0,1.1900148E1,1.6655603E1,1.4364511E1,7.4781227E0,7.6786194E0,6.5934825E0,3.9429436E0,7.2256966E0,7.2536025E0,0E0,0E0,0E0,0E0,0E0,0E0,0E0,0E0,0E0,0E0,0E0,0E0,0E0,0E0,0E0,0E0],"parents":[2147483647,0,0,1,1,2,2,3,3,4,4,5,5,6,6,7,7,8,8,9,9,10,10,11,11,12,12,13,13,14,14],"right_children":[2,4,6,8,10,12,14,16,18,20,22,24,26,28,30,-1,-1,-1,-1,-1,-1,-1,-1,-1,-1,-1,-1,-1,-1,-1,-1],"split_conditions":[1.4017621E2,7.262131E-1,3.3857924E-1,5.2523077E-1,8.1357056E-1,2.5990707E-1,4.9910775E-1,2.545524E1,1.5149632E-1,1.2653518E-1,4.8154065E-1,4.0980718E-1,7.2977525E-1,-1.7652848E-1,7.268801E-2,-2.4596512E-2,1.5075542E-2,-2.7676402E-2,2.0736218E-3,2.6453352E-3,-3.8198095E-2,4.927824E-2,-2.4163783E-2,4.436047E-2,-2.1354914E-2,5.7609547E-2,2.42312E-2,5.890127E-3,3.8577605E-2,4.751659E-2,-7.7433153E-3],"split_indices":[0,5,20,15,4,3,5,0,4,20,15,21,5,4,15,0,0,0,0,0,0,0,0,0,0,0,0,0,0,0,0],"split_type":[0,0,0,0,0,0,0,0,0,0,0,0,0,0,0,0,0,0,0,0,0,0,0,0,0,0,0,0,0,0,0],"sum_hessian":[6.924085E2,4.7951526E2,2.1289326E2,3.5290298E2,1.2661226E2,6.344057E1,1.494527E2,1.8970422E2,1.6319876E2,1.14251945E2,1.2360316E1,1.3823275E1,4.9617294E1,6.9061615E1,8.039108E1,3.0766459E1,1.5893777E2,9.058323E1,7.2615524E1,1.2437939E1,1.01814E2,6.164081E0,6.1962347E0,5.4701996E0,8.353075E0,3.4951866E1,1.466543E1,2.994298E1,3.9118637E1,5.4467635E0,7.494431E1],"tree_param":{"num_deleted":"0","num_feature":"25","num_nodes":"31","size_leaf_vector":"1"}},{"base_weights":[-8.254967E-3,-4.163835E-1,1.9838247E-1,-1.7863223E-1,-6.578188E-1,3.715019E-1,-2.2939357E-1,2.3959658E-1,-3.406725E-1,-4.1049723E-2,-7.662957E-1,8.429144E-1,3.0384323E-1,-5.045173E-1,1.4085123E-1,-1.0403439E-2,4.3557834E-2,1.9379659E-2,-2.3123452E-2,-1.9059092E-2,4.3206725E-2,-4.3173563E-2,-1.1854887E-3,4.543128E-2,-1.4047069E-2,8.825268E-3,2.7517065E-2,-3.0077297E-2,1.8523052E-2,6.498896E-2,4.0242735E-6],"categories":[],"categories_nodes":[],"categories_segments":[],"categories_sizes":[],"default_left":[0,0,0,0,0,0,0,0,0,0,0,0,0,0,0,0,0,0,0,0,0,0,0,0,0,0,0,0,0,0,0],"id":31,"left_children":[1,3,5,7,9,11,13,15,17,19,21,23,25,27,29,-1,-1,-1,-1,-1,-1,-1,-1,-1,-1,-1,-1,-1,-1,-1,-1],"loss_changes":[5.8279392E1,1.32152405E1,3.406215E1,8.105678E0,7.653946E0,1.0173573E1,1.3598397E1,9.695246E0,7.7853584E0,5.944552E0,7.0247726E0,3.2445621E0,8.927731E0,6.7094326E0,9.363442E0,0E0,0E0,0E0,0E0,0E0,0E0,0E0,0E0,0E0,0E0,0E0,0E0,0E0,0E0,0E0,0E0],"parents":[2147483647,0,0,1,1,2,2,3,3,4,4,5,5,6,6,7,7,8,8,9,9,10,10,11,11,12,12,13,13,14,14],"right_children":[2,4,6,8,10,12,14,16,18,20,22,24,26,28,30,-1,-1,-1,-1,-1,-1,-1,-1,-1,-1,-1,-1,-1,-1,-1,-1],"split_conditions":[7.32671E1,4.9490458E-1,7.262131E-1,-4.5559332E-1,1.640774E-1,9.143536E-2,1.4920285E2,6.052501E-1,1.5679938E-1,7.324912E-1,7.835156E-1,9.568918E-1,1.5547174E2,8.3477384E-1,3.6047297E0,-1.0403439E-2,4.3557834E-2,1.9379659E-2,-2.3123452E-2,-1.9059092E-2,4.3206725E-2,-4.3173563E-2,-1.1854887E-3,4.543128E-2,-1.4047069E-2,8.825268E-3,2.7517065E-2,-3.0077297E-2,1.8523052E-2,6.498896E-2,4.0242735E-6],"split_indices":[0,5,5,24,12,5,0,13,20,10,4,7,0,4,1,0,0,0,0,0,0,0,0,0,0,0,0,0,0,0,0],"split_type":[0,0,0,0,0,0,0,0,0,0,0,0,0,0,0,0,0,0,0,0,0,0,0,0,0,0,0,0,0,0,0],"sum_hessian":[6.890698E2,2.3127155E2,4.5779828E2,1.1740142E2,1.13870125E2,3.2599915E2,1.3179913E2,3.2650715E1,8.47507E1,1.7238014E1,9.663211E1,3.9477932E1,2.865212E2,7.540447E1,5.6394665E1,1.9499521E1,1.3151194E1,1.1830367E1,7.2920334E1,1.2950589E1,4.287424E0,8.530608E1,1.132603E1,3.747812E1,1.9998105E0,1.9005644E2,9.6464775E1,6.815868E1,7.245793E0,5.216371E0,5.1178295E1],"tree_param":{"num_deleted":"0","num_feature":"25","num_nodes":"31","size_leaf_vector":"1"}},{"base_weights":[1.0900027E-2,-3.4621066E-1,2.1667755E-1,-6.979688E-1,-1.9788693E-1,3.05493E-1,-1.8253389E-1,5.3082753E-2,-7.582599E-1,9.6741825E-2,-3.7078193E-1,5.4409057E-1,1.7272872E-1,-4.2713264E-1,3.6869547E-1,-4.335915E-2,-7.0640206E-4,9.163312E-3,-4.451467E-2,-4.691934E-3,-3.443199E-2,1.8205782E-2,4.160085E-2,-2.7994427E-3,1.5310395E-2,-3.2263935E-2,8.599054E-3,-2.2176504E-2,2.8758595E-2],"categories":[],"categories_nodes":[],"categories_segments":[],"categories_sizes":[],"default_left":[0,0,0,0,0,0,0,0,0,0,0,0,0,0,0,0,0,0,0,0,0,0,0,0,0,0,0,0,0],"id":32,"left_children":[1,3,5,7,9,11,13,-1,15,17,19,21,23,25,27,-1,-1,-1,-1,-1,-1,-1,-1,-1,-1,-1,-1,-1,-1],"loss_changes":[5.1020737E1,1.3105188E1,1.567235E1,8.750046E0,9.20196E0,1.1330898E1,1.10494E1,0E0,5.9039955E0,5.9138784E0,9.935691E0,6.3545685E0,7.1362157E0,7.4843864E0,4.5090113E0,0E0,0E0,0E0,0E0,0E0,0E0,0E0,0E0,0E0,0E0,0E0,0E0,0E0,0E0],"parents":[2147483647,0,0,1,1,2,2,3,3,4,4,5,5,6,6,8,8,9,9,10,10,11,11,12,12,13,13,14,14],"right_children":[2,4,6,8,10,12,14,-1,16,18,20,22,24,26,28,-1,-1,-1,-1,-1,-1,-1,-1,-1,-1,-1,-1,-1,-1],"split_conditions":[7.92333E1,2.545524E1,8.31686E-1,1.8612858E1,3.5022858E-1,3.7610564E-1,1.6026979E2,5.3082753E-2,8.973324E-1,9.5082647E-1,5.4743546E-1,1.5476996E2,3.686898E-1,2.9841946E1,8.5669297E-1,-4.335915E-2,-7.0640206E-4,9.163312E-3,-4.451467E-2,-4.691934E-3,-3.443199E-2,1.8205782E-2,4.160085E-2,-2.7994427E-3,1.5310395E-2,-3.2263935E-2,8.599054E-3,-2.2176504E-2,2.8758595E-2],"split_indices":[0,0,15,2,15,20,0,0,21,3,12,0,7,1,15,0,0,0,0,0,0,0,0,0,0,0,0,0,0],"split_type":[0,0,0,0,0,0,0,0,0,0,0,0,0,0,0,0,0,0,0,0,0,0,0,0,0,0,0,0,0],"sum_hessian":[6.922772E2,2.5282933E2,4.3944788E2,7.38898E1,1.7893954E2,3.5966528E2,7.978259E1,1.8976355E0,7.1992165E1,6.633653E1,1.12603004E2,1.27475075E2,2.3219022E2,5.5417248E1,2.4365341E1,6.2655533E1,9.33663E0,6.1738777E1,4.5977507E0,6.086648E1,5.1736526E1,7.983624E1,4.7638836E1,8.578224E1,1.4640797E2,4.056858E1,1.484867E1,4.7058063E0,1.9659534E1],"tree_param":{"num_deleted":"0","num_feature":"25","num_nodes":"29","size_leaf_vector":"1"}},{"base_weights":[1.2531769E-2,1.7006737E-1,-4.0175194E-1,-1.9319807E-1,3.7625185E-1,-5.2763826E-1,1.5747589E-1,1.6089284E-1,-3.9582607E-1,1.567099E-1,5.525852E-1,-8.2721794E-1,-2.8662232E-1,-1.6197118E-1,8.6362743E-1,-2.8494953E-3,3.5590496E-2,-3.0992607E-2,-2.6115708E-3,2.6595568E-2,-8.69838E-3,1.404541E-2,3.9952427E-2,-9.728196E-3,-4.5503516E-2,1.54534895E-2,-2.0789886E-2,-2.34889E-2,3.1367075E-2,-5.714098E-3,5.213685E-2],"categories":[],"categories_nodes":[],"categories_segments":[],"categories_sizes":[],"default_left":[0,0,0,0,0,0,0,0,0,0,0,0,0,0,0,0,0,0,0,0,0,0,0,0,0,0,0,0,0,0,0],"id":33,"left_children":[1,3,5,7,9,11,13,15,17,19,21,23,25,27,29,-1,-1,-1,-1,-1,-1,-1,-1,-1,-1,-1,-1,-1,-1,-1,-1],"loss_changes":[4.4503178E1,3.7071213E1,1.3308907E1,1.2943821E1,1.2125553E1,1.0851833E1,8.100566E0,7.968849E0,8.778677E0,1.7699255E1,1.146302E1,3.384159E0,6.7952256E0,6.4026833E0,2.0721006E0,0E0,0E0,0E0,0E0,0E0,0E0,0E0,0E0,0E0,0E0,0E0,0E0,0E0,0E0,0E0,0E0],"parents":[2147483647,0,0,1,1,2,2,3,3,4,4,5,5,6,6,7,7,8,8,9,9,10,10,11,11,12,12,13,13,14,14],"right_children":[2,4,6,8,10,12,14,16,18,20,22,24,26,28,30,-1,-1,-1,-1,-1,-1,-1,-1,-1,-1,-1,-1,-1,-1,-1,-1],"split_conditions":[7.1782666E-1,7.703355E1,6.463579E-1,3.5022858E-1,4.187692E-1,9.928349E1,1.4017621E2,7.2178483E-1,3.491208E-1,4.8154065E-1,1.3099919E2,1.19832106E-1,2.1756403E1,7.385832E-1,8.93466E-2,-2.8494953E-3,3.5590496E-2,-3.0992607E-2,-2.6115708E-3,2.6595568E-2,-8.69838E-3,1.404541E-2,3.9952427E-2,-9.728196E-3,-4.5503516E-2,1.54534895E-2,-2.0789886E-2,-2.34889E-2,3.1367075E-2,-5.714098E-3,5.213685E-2],"split_indices":[5,0,4,15,10,0,0,10,4,15,0,23,2,10,23,0,0,0,0,0,0,0,0,0,0,0,0,0,0,0,0],"split_type":[0,0,0,0,0,0,0,0,0,0,0,0,0,0,0,0,0,0,0,0,0,0,0,0,0,0,0,0,0,0,0],"sum_hessian":[6.798433E2,4.929743E2,1.86869E2,1.7851726E2,3.1445703E2,1.5257886E2,3.4290146E1,6.504958E1,1.13467674E2,1.4090878E2,1.7354826E2,6.694049E1,8.563836E1,2.4140263E1,1.0149883E1,4.7256584E1,1.7792997E1,6.819806E1,4.5269615E1,6.572533E1,7.518345E1,8.356937E1,8.99789E1,8.139121E0,5.8801373E1,1.5013055E1,7.0625305E1,1.7658743E1,6.48152E0,1.6272587E0,8.522625E0],"tree_param":{"num_deleted":"0","num_feature":"25","num_nodes":"31","size_leaf_vector":"1"}},{"base_weights":[-5.9078285E-3,3.660028E-1,-1.633548E-1,9.8193385E-2,5.719955E-1,8.853976E-2,-3.0035374E-1,-6.3649553E-1,2.2842696E-1,8.2382876E-1,3.7074003E-1,-6.385905E-2,4.3624195E-1,-3.9401272E-1,1.13014124E-1,-4.446759E-2,3.3897873E-2,3.6365446E-2,3.4527224E-3,-9.448702E-3,4.568943E-2,3.529521E-2,4.1931733E-3,8.230683E-3,-1.8575368E-2,2.7706204E-2,-2.3349311E-2,-2.8229985E-2,-9.9349E-3,-3.4352026E-3,4.21388E-2],"categories":[],"categories_nodes":[],"categories_segments":[],"categories_sizes":[],"default_left":[0,0,0,0,0,0,0,0,0,0,0,0,0,0,0,0,0,0,0,0,0,0,0,0,0,0,0,0,0,0,0],"id":34,"left_children":[1,3,5,7,9,11,13,15,17,19,21,23,25,27,29,-1,-1,-1,-1,-1,-1,-1,-1,-1,-1,-1,-1,-1,-1,-1,-1],"loss_changes":[4.0090176E1,1.1177938E1,1.662503E1,8.732046E0,5.517853E0,9.047343E0,1.2114954E1,5.1819167E0,6.069155E0,4.748043E0,6.2559223E0,8.440706E0,5.7951975E0,8.364063E0,7.7981606E0,0E0,0E0,0E0,0E0,0E0,0E0,0E0,0E0,0E0,0E0,0E0,0E0,0E0,0E0,0E0,0E0],"parents":[2147483647,0,0,1,1,2,2,3,3,4,4,5,5,6,6,7,7,8,8,9,9,10,10,11,11,12,12,13,13,14,14],"right_children":[2,4,6,8,10,12,14,16,18,20,22,24,26,28,30,-1,-1,-1,-1,-1,-1,-1,-1,-1,-1,-1,-1,-1,-1,-1,-1],"split_conditions":[2.9445362E-1,4.209427E-1,3.610975E-1,1.3980982E-1,4.6405527E-1,4.4604743E-1,8.222814E-1,7.8482753E-1,2.6112762E-1,8.36136E-2,4.633419E-1,1.2755956E-1,8.751636E-1,8.565169E-2,5.9655493E-1,-4.446759E-2,3.3897873E-2,3.6365446E-2,3.4527224E-3,-9.448702E-3,4.568943E-2,3.529521E-2,4.1931733E-3,8.230683E-3,-1.8575368E-2,2.7706204E-2,-2.3349311E-2,-2.8229985E-2,-9.9349E-3,-3.4352026E-3,4.21388E-2],"split_indices":[5,10,20,18,20,4,10,15,15,15,18,9,5,4,4,0,0,0,0,0,0,0,0,0,0,0,0,0,0,0,0],"split_type":[0,0,0,0,0,0,0,0,0,0,0,0,0,0,0,0,0,0,0,0,0,0,0,0,0,0,0,0,0,0,0],"sum_hessian":[6.826234E2,2.0263887E2,4.7998453E2,8.8742355E1,1.13896515E2,1.69213E2,3.107715E2,1.2776835E1,7.596552E1,4.921713E1,6.467938E1,1.1821526E2,5.0997726E1,2.5340338E2,5.736814E1,1.098676E1,1.7900752E0,1.7529512E1,5.843601E1,3.9251857E0,4.5291943E1,2.9155602E1,3.552378E1,6.810358E1,5.0111683E1,4.545218E1,5.545548E0,1.3425497E2,1.191484E2,4.665614E1,1.0712003E1],"tree_param":{"num_deleted":"0","num_feature":"25","num_nodes":"31","size_leaf_vector":"1"}},{"base_weights":[-8.815365E-3,-2.1857767E-1,2.5679025E-1,5.284188E-2,-3.7296334E-1,-4.83534E-2,3.7622732E-1,-4.4804746E-1,2.2612365E-1,-2.5428388E-1,-7.194732E-1,-2.2722904E-1,8.385938E-1,2.7856845E-1,7.5725883E-1,4.9159136E-2,-2.7850037E-2,-2.376136E-2,1.5495007E-2,-2.0309908E-2,3.9458528E-4,-4.298498E-2,8.475701E-3,-4.3498266E-2,-1.5695306E-3,-1.803874E-2,5.373096E-2,2.0612901E-2,-8.307374E-3,1.3395405E-2,5.1611867E-2],"categories":[],"categories_nodes":[],"categories_segments":[],"categories_sizes":[],"default_left":[0,0,0,0,0,0,0,0,0,0,0,0,0,0,0,0,0,0,0,0,0,0,0,0,0,0,0,0,0,0,0],"id":35,"left_children":[1,3,5,7,9,11,13,15,17,19,21,23,25,27,29,-1,-1,-1,-1,-1,-1,-1,-1,-1,-1,-1,-1,-1,-1,-1,-1],"loss_changes":[3.780307E1,1.5904877E1,1.0930725E1,1.2107172E1,9.759377E0,1.369432E1,7.800823E0,6.1440406E0,6.2248025E0,7.237356E0,7.7665577E0,8.987305E0,4.491791E0,1.03518E1,5.555752E0,0E0,0E0,0E0,0E0,0E0,0E0,0E0,0E0,0E0,0E0,0E0,0E0,0E0,0E0,0E0,0E0],"parents":[2147483647,0,0,1,1,2,2,3,3,4,4,5,5,6,6,7,7,8,8,9,9,10,10,11,11,12,12,13,13,14,14],"right_children":[2,4,6,8,10,12,14,16,18,20,22,24,26,28,30,-1,-1,-1,-1,-1,-1,-1,-1,-1,-1,-1,-1,-1,-1,-1,-1],"split_conditions":[1.1537219E2,3.4631336E-1,2.6091647E-1,3.237387E1,7.549038E-1,1.8629239E2,5.5082244E-1,5.1255662E-2,1.3373317E-1,3.623184E-1,8.910439E-1,2.1243817E-1,5.3379845E-2,7.832466E-1,-2.6009312E-1,4.9159136E-2,-2.7850037E-2,-2.376136E-2,1.5495007E-2,-2.0309908E-2,3.9458528E-4,-4.298498E-2,8.475701E-3,-4.3498266E-2,-1.5695306E-3,-1.803874E-2,5.373096E-2,2.0612901E-2,-8.307374E-3,1.3395405E-2,5.1611867E-2],"split_indices":[0,15,10,0,20,0,4,8,10,4,21,3,10,20,19,0,0,0,0,0,0,0,0,0,0,0,0,0,0,0,0],"split_type":[0,0,0,0,0,0,0,0,0,0,0,0,0,0,0,0,0,0,0,0,0,0,0,0,0,0,0,0,0,0,0],"sum_hessian":[6.7651215E2,3.7809128E2,2.9842087E2,1.3732433E2,2.4076694E2,8.4114975E1,2.1430591E2,3.4888824E1,1.024355E2,1.806338E2,6.013314E1,7.061704E1,1.3497931E1,1.7196272E2,4.234319E1,1.9004385E0,3.2988384E1,1.0431729E1,9.200378E1,1.1401812E2,6.661568E1,5.1968685E1,8.164454E0,1.5687814E1,5.492923E1,2.1325889E0,1.1365341E1,1.3227228E2,3.9690437E1,1.5943853E1,2.6399336E1],"tree_param":{"num_deleted":"0","num_feature":"25","num_nodes":"31","size_leaf_vector":"1"}},{"base_weights":[-2.2055684E-3,3.364754E-1,-1.4642417E-1,-2.4255712E-1,4.2154995E-1,-2.8380224E-1,9.590232E-2,1.7117813E-1,-8.17508E-1,-6.276229E-2,5.2340597E-1,-4.333248E-1,-4.628392E-2,-3.2115385E-2,4.7497323E-1,-2.4386663E-2,3.4935143E-2,3.869206E-2,-5.3114314E-2,-2.9438892E-2,1.3144868E-2,-1.8049406E-2,2.8860522E-2,-1.7593153E-2,-6.0166694E-2,4.491025E-3,-3.0372633E-2,1.0617443E-2,-1.2424611E-2,4.2605214E-2,7.7345534E-3],"categories":[],"categories_nodes":[],"categories_segments":[],"categories_sizes":[],"default_left":[0,0,0,0,0,0,0,0,0,0,0,0,0,0,0,0,0,0,0,0,0,0,0,0,0,0,0,0,0,0,0],"id":36,"left_children":[1,3,5,7,9,11,13,15,17,19,21,23,25,27,29,-1,-1,-1,-1,-1,-1,-1,-1,-1,-1,-1,-1,-1,-1,-1,-1],"loss_changes":[3.261695E1,9.926571E0,1.5618206E1,6.3682942E0,8.628689E0,1.0603775E1,8.274282E0,5.9207077E0,5.1574636E0,5.4945927E0,7.0643005E0,1.1084175E1,8.96666E0,6.8320975E0,5.065625E0,0E0,0E0,0E0,0E0,0E0,0E0,0E0,0E0,0E0,0E0,0E0,0E0,0E0,0E0,0E0,0E0],"parents":[2147483647,0,0,1,1,2,2,3,3,4,4,5,5,6,6,7,7,8,8,9,9,10,10,11,11,12,12,13,13,14,14],"right_children":[2,4,6,8,10,12,14,16,18,20,22,24,26,28,30,-1,-1,-1,-1,-1,-1,-1,-1,-1,-1,-1,-1,-1,-1,-1,-1],"split_conditions":[3.0053875E-1,1.1735922E-1,2.7926505E-1,5.7100475E-1,1.5555283E-1,6.242196E-1,7.385832E-1,4.9886388E-1,9.5053464E-2,-2.7632907E-1,1.9107485E1,8.936156E-1,7.9617244E-1,4.853513E-1,-9.9333875E-2,-2.4386663E-2,3.4935143E-2,3.869206E-2,-5.3114314E-2,-2.9438892E-2,1.3144868E-2,-1.8049406E-2,2.8860522E-2,-1.7593153E-2,-6.0166694E-2,4.491025E-3,-3.0372633E-2,1.0617443E-2,-1.2424611E-2,4.2605214E-2,7.7345534E-3],"split_indices":[5,10,4,16,6,10,10,13,22,14,2,15,8,15,14,0,0,0,0,0,0,0,0,0,0,0,0,0,0,0,0],"split_type":[0,0,0,0,0,0,0,0,0,0,0,0,0,0,0,0,0,0,0,0,0,0,0,0,0,0,0,0,0,0,0],"sum_hessian":[6.65768E2,1.9843439E2,4.6733365E2,2.5183039E1,1.7325136E2,2.981419E2,1.6919173E2,1.5053091E1,1.0129947E1,3.0171862E1,1.430795E2,1.8245712E2,1.156848E2,1.2716242E2,4.2029305E1,6.72659E0,8.326501E0,1.0623052E0,9.067642E0,1.1228036E1,1.8943825E1,7.8780074E0,1.3520148E2,1.6631868E2,1.6138432E1,9.377966E1,2.1905138E1,5.971479E1,6.744763E1,1.8539103E1,2.3490202E1],"tree_param":{"num_deleted":"0","num_feature":"25","num_nodes":"31","size_leaf_vector":"1"}},{"base_weights":[6.0400167E-3,-8.992068E-2,2.9047945E-1,-2.2419302E-1,1.0773415E-1,4.9257258E-1,-5.7242915E-2,1.353216E-1,-3.255951E-1,1.1672337E0,6.8275295E-2,5.749618E-1,-2.9508546E-1,-1.8159935E-1,8.0742604E-1,-6.8618363E-4,3.6887717E-2,-1.3413313E-2,-4.7553323E-2,7.037551E-2,-8.334721E-3,1.861672E-2,-2.5568733E-3,3.4468E-2,2.8191337E-3,2.1110348E-2,-3.7045997E-2,-1.2833448E-2,4.6014156E-2,5.9955347E-2,-3.8149673E-3],"categories":[],"categories_nodes":[],"categories_segments":[],"categories_sizes":[],"default_left":[0,0,0,0,0,0,0,0,0,0,0,0,0,0,0,0,0,0,0,0,0,0,0,0,0,0,0,0,0,0,0],"id":37,"left_children":[1,3,5,7,9,11,13,15,17,19,21,23,25,27,29,-1,-1,-1,-1,-1,-1,-1,-1,-1,-1,-1,-1,-1,-1,-1,-1],"loss_changes":[1.8434134E1,1.3427834E1,1.2000113E1,1.1019614E1,8.489747E0,7.1684513E0,6.976326E0,6.020777E0,8.175888E0,2.573636E0,7.232829E0,5.7734528E0,3.7901223E0,4.897042E0,2.9194026E0,0E0,0E0,0E0,0E0,0E0,0E0,0E0,0E0,0E0,0E0,0E0,0E0,0E0,0E0,0E0,0E0],"parents":[2147483647,0,0,1,1,2,2,3,3,4,4,5,5,6,6,7,7,8,8,9,9,10,10,11,11,12,12,13,13,14,14],"right_children":[2,4,6,8,10,12,14,16,18,20,22,24,26,28,30,-1,-1,-1,-1,-1,-1,-1,-1,-1,-1,-1,-1,-1,-1,-1,-1],"split_conditions":[7.430177E-1,2.3328964E-1,6.2006605E-1,2.1808992E-1,2.8320683E-2,7.9100865E-1,6.970524E-1,1.7792168E-1,8.3079356E-1,6.980915E-1,3.0678177E-1,8.318096E-1,4.448135E-1,9.163543E-1,2.3875542E1,-6.8618363E-4,3.6887717E-2,-1.3413313E-2,-4.7553323E-2,7.037551E-2,-8.334721E-3,1.861672E-2,-2.5568733E-3,3.4468E-2,2.8191337E-3,2.1110348E-2,-3.7045997E-2,-1.2833448E-2,4.6014156E-2,5.9955347E-2,-3.8149673E-3],"split_indices":[10,4,15,15,3,19,4,15,14,8,20,12,21,9,1,0,0,0,0,0,0,0,0,0,0,0,0,0,0,0,0],"split_type":[0,0,0,0,0,0,0,0,0,0,0,0,0,0,0,0,0,0,0,0,0,0,0,0,0,0,0,0,0,0,0],"sum_hessian":[6.734096E2,5.0404495E2,1.6936465E2,3.0006696E2,2.03978E2,1.0684862E2,6.2516033E1,6.59414E1,2.3412556E2,6.297747E0,1.9768024E2,9.697504E1,9.873576E0,5.5346146E1,7.169888E0,5.3646236E1,1.2295163E1,2.1577698E2,1.834858E1,5.2897573E0,1.0079898E0,5.514563E1,1.4253462E2,7.917891E1,1.779613E1,3.8049226E0,6.068654E0,5.2534134E1,2.812009E0,4.720716E0,2.4491723E0],"tree_param":{"num_deleted":"0","num_feature":"25","num_nodes":"31","size_leaf_vector":"1"}},{"base_weights":[-1.767041E-2,-2.8657803E-1,1.7211248E-1,-1.18065536E-1,-5.977346E-1,3.1387362E-1,-1.6585164E-1,-2.9141667E-1,1.3179259E-1,-7.0746803E-1,-6.763406E-2,4.11421E-1,-8.4901184E-2,-2.1967152E-1,1.1482178E0,-7.308591E-3,-3.463432E-2,1.4593251E-2,-2.5163759E-2,-1.5437165E-3,-3.887209E-2,5.0213464E-2,-1.7989395E-2,-5.2989232E-3,2.4000498E-2,2.8820312E-2,-1.5228703E-2,-1.5305998E-2,3.4118935E-2,-1.2947865E-2,8.272142E-2],"categories":[],"categories_nodes":[],"categories_segments":[],"categories_sizes":[],"default_left":[0,0,0,0,0,0,0,0,0,0,0,0,0,0,0,0,0,0,0,0,0,0,0,0,0,0,0,0,0,0,0],"id":38,"left_children":[1,3,5,7,9,11,13,15,17,19,21,23,25,27,29,-1,-1,-1,-1,-1,-1,-1,-1,-1,-1,-1,-1,-1,-1,-1,-1],"loss_changes":[3.4347584E1,1.4529198E1,1.8958557E1,7.9157248E0,5.627968E0,1.0862839E1,8.545751E0,6.1748686E0,7.78986E0,3.7982216E0,5.948055E0,7.9937363E0,8.243525E0,9.059172E0,3.8294358E0,0E0,0E0,0E0,0E0,0E0,0E0,0E0,0E0,0E0,0E0,0E0,0E0,0E0,0E0,0E0,0E0],"parents":[2147483647,0,0,1,1,2,2,3,3,4,4,5,5,6,6,7,7,8,8,9,9,10,10,11,11,12,12,13,13,14,14],"right_children":[2,4,6,8,10,12,14,16,18,20,22,24,26,28,30,-1,-1,-1,-1,-1,-1,-1,-1,-1,-1,-1,-1,-1,-1,-1,-1],"split_conditions":[8.8788574E1,6.122976E-1,7.1782666E-1,3.2111713E-1,6.970524E-1,8.152723E-1,9.696754E-1,7.6176953E-1,8.234979E-1,1.11728534E-1,1.5917161E-1,9.732304E-2,2.5079727E-1,8.3477384E-1,2.1948287E-1,-7.308591E-3,-3.463432E-2,1.4593251E-2,-2.5163759E-2,-1.5437165E-3,-3.887209E-2,5.0213464E-2,-1.7989395E-2,-5.2989232E-3,2.4000498E-2,2.8820312E-2,-1.5228703E-2,-1.5305998E-2,3.4118935E-2,-1.2947865E-2,8.272142E-2],"split_indices":[0,5,5,4,4,15,7,20,12,23,15,6,20,4,23,0,0,0,0,0,0,0,0,0,0,0,0,0,0,0,0],"split_type":[0,0,0,0,0,0,0,0,0,0,0,0,0,0,0,0,0,0,0,0,0,0,0,0,0,0,0,0,0,0,0],"sum_hessian":[6.7106604E2,2.774421E2,3.9362393E2,1.8086877E2,9.6573326E1,2.7735638E2,1.1626755E2,1.06684746E2,7.418403E1,7.9733505E1,1.6839823E1,2.2281914E2,5.453723E1,1.1249304E2,3.7745068E0,7.933329E1,2.7351461E1,5.9681408E1,1.450262E1,7.608285E0,7.212522E1,3.0846977E0,1.3755125E1,2.601679E1,1.9680235E2,1.3193957E1,4.1343273E1,1.03257904E2,9.235134E0,1.1278168E0,2.6466901E0],"tree_param":{"num_deleted":"0","num_feature":"25","num_nodes":"31","size_leaf_vector":"1"}},{"base_weights":[1.6869772E-2,-2.9809403E-1,2.2728483E-1,-1.3714604E-1,-5.786568E-1,3.4739333E-1,-8.2709126E-2,1.3115922E-1,-3.4509656E-1,-2.6427358E-1,-7.8317845E-1,-2.0091185E-1,4.2606866E-1,-3.0488303E-1,2.6344633E-1,-4.9156332E-3,3.4173764E-2,-2.0112187E-2,4.2278115E-2,2.4714675E-2,-2.5394583E-2,-4.4248525E-2,-7.350832E-3,-1.5365339E-2,5.829948E-2,1.5821123E-2,3.4034945E-2,5.2088816E-2,-1.8381782E-2,-3.7358011E-4,3.245046E-2],"categories":[],"categories_nodes":[],"categories_segments":[],"categories_sizes":[],"default_left":[0,0,0,0,0,0,0,0,0,0,0,0,0,0,0,0,0,0,0,0,0,0,0,0,0,0,0,0,0,0,0],"id":39,"left_children":[1,3,5,7,9,11,13,15,17,19,21,23,25,27,29,-1,-1,-1,-1,-1,-1,-1,-1,-1,-1,-1,-1,-1,-1,-1,-1],"loss_changes":[4.415975E1,1.19723E1,1.4900236E1,9.580957E0,6.028721E0,1.2512421E1,8.720593E0,9.617046E0,6.910262E0,7.5938168E0,3.6417847E0,5.7141886E0,6.8270493E0,6.2047753E0,4.6485224E0,0E0,0E0,0E0,0E0,0E0,0E0,0E0,0E0,0E0,0E0,0E0,0E0,0E0,0E0,0E0,0E0],"parents":[2147483647,0,0,1,1,2,2,3,3,4,4,5,5,6,6,7,7,8,8,9,9,10,10,11,11,12,12,13,13,14,14],"right_children":[2,4,6,8,10,12,14,16,18,20,22,24,26,28,30,-1,-1,-1,-1,-1,-1,-1,-1,-1,-1,-1,-1,-1,-1,-1,-1],"split_conditions":[8.8788574E1,6.122976E-1,7.262131E-1,3.9061752E-1,3.9931142E-1,1.0824675E-1,1.5961949E2,7.3576665E-1,9.6084934E-1,2.0093243E-1,3.2470963E1,8.989439E-1,1.6338962E2,-9.2492706E-1,5.8986396E-1,-4.9156332E-3,3.4173764E-2,-2.0112187E-2,4.2278115E-2,2.4714675E-2,-2.5394583E-2,-4.4248525E-2,-7.350832E-3,-1.5365339E-2,5.829948E-2,1.5821123E-2,3.4034945E-2,5.2088816E-2,-1.8381782E-2,-3.7358011E-4,3.245046E-2],"split_indices":[0,5,5,22,13,10,0,10,6,8,1,12,0,24,17,0,0,0,0,0,0,0,0,0,0,0,0,0,0,0,0],"split_type":[0,0,0,0,0,0,0,0,0,0,0,0,0,0,0,0,0,0,0,0,0,0,0,0,0,0,0,0,0,0,0],"sum_hessian":[6.643074E2,2.6588928E2,3.9841812E2,1.699083E2,9.598097E1,2.8707068E2,1.1134744E2,7.434936E1,9.555894E1,3.873346E1,5.7247517E1,3.582749E1,2.512432E2,6.789162E1,4.345583E1,5.3106915E1,2.1242441E1,9.181436E1,3.744579E0,9.165467E0,2.9567991E1,4.9013733E1,8.233784E0,3.395939E1,1.8681023E0,1.7718732E2,7.405588E1,2.3281708E0,6.5563446E1,2.6098318E1,1.7357512E1],"tree_param":{"num_deleted":"0","num_feature":"25","num_nodes":"31","size_leaf_vector":"1"}},{"base_weights":[1.9573797E-2,-9.030207E-2,3.7835202E-1,-1.957507E-1,2.0968492E-1,5.9583056E-1,1.0511482E-1,-5.5149233E-1,-9.961E-2,-2.1502987E-1,4.0173048E-1,6.3707256E-1,-6.529834E-1,-1.0461872E0,2.0035298E-1,5.028332E-2,-3.082406E-2,-9.454434E-3,2.1576148E-2,5.910731E-3,-3.7837844E-2,3.0914834E-2,-1.063005E-3,4.3648764E-2,1.9694373E-2,1.0486569E-3,-5.219723E-2,-7.70778E-2,1.2941002E-2,-2.8572213E-3,2.4597926E-2],"categories":[],"categories_nodes":[],"categories_segments":[],"categories_sizes":[],"default_left":[0,0,0,0,0,0,0,0,0,0,0,0,0,0,0,0,0,0,0,0,0,0,0,0,0,0,0,0,0,0,0],"id":40,"left_children":[1,3,5,7,9,11,13,15,17,19,21,23,25,27,29,-1,-1,-1,-1,-1,-1,-1,-1,-1,-1,-1,-1,-1,-1,-1,-1],"loss_changes":[2.6409277E1,1.6269115E1,9.270023E0,1.2944883E1,1.1008653E1,4.9089413E0,7.9746943E0,8.781353E0,1.4360512E1,7.7344046E0,8.492298E0,4.529728E0,8.8685095E-1,4.000669E0,5.002446E0,0E0,0E0,0E0,0E0,0E0,0E0,0E0,0E0,0E0,0E0,0E0,0E0,0E0,0E0,0E0,0E0],"parents":[2147483647,0,0,1,1,2,2,3,3,4,4,5,5,6,6,7,7,8,8,9,9,10,10,11,11,12,12,13,13,14,14],"right_children":[2,4,6,8,10,12,14,16,18,20,22,24,26,28,30,-1,-1,-1,-1,-1,-1,-1,-1,-1,-1,-1,-1,-1,-1,-1,-1],"split_conditions":[1.5547174E2,7.430177E-1,5.890561E-1,3.7929276E1,3.2476917E-1,9.5804787E-1,5.3379845E-2,2.676154E-2,7.4046594E-1,7.0423E-1,6.2006605E-1,5.294881E-1,-4.7624967E-1,7.5403965E-1,-5.9370868E-2,5.028332E-2,-3.082406E-2,-9.454434E-3,2.1576148E-2,5.910731E-3,-3.7837844E-2,3.0914834E-2,-1.063005E-3,4.3648764E-2,1.9694373E-2,1.0486569E-3,-5.219723E-2,-7.70778E-2,1.2941002E-2,-2.8572213E-3,2.4597926E-2],"split_indices":[0,10,15,0,7,18,10,20,4,20,15,20,14,6,24,0,0,0,0,0,0,0,0,0,0,0,0,0,0,0,0],"split_type":[0,0,0,0,0,0,0,0,0,0,0,0,0,0,0,0,0,0,0,0,0,0,0,0,0,0,0,0,0,0,0],"sum_hessian":[6.680613E2,5.120073E2,1.5605399E2,3.7909784E2,1.3290945E2,8.623559E1,6.98184E1,7.964768E1,2.9945016E2,4.13478E1,9.156165E1,8.39529E1,2.28268E0,4.571395E0,6.5247E1,2.611065E0,7.703661E1,2.5682712E2,4.2623047E1,2.6083973E1,1.5263826E1,6.025174E1,3.1309914E1,4.129995E1,4.2652958E1,1.1854694E0,1.0972106E0,3.1821985E0,1.3891963E0,3.507694E1,3.0170067E1],"tree_param":{"num_deleted":"0","num_feature":"25","num_nodes":"31","size_leaf_vector":"1"}},{"base_weights":[4.604778E-3,-2.8356373E-1,1.525501E-1,-4.1427267E-1,7.536411E-2,1.3051985E-2,4.0035293E-1,-5.58618E-1,-1.8946087E-1,-4.0817717E-1,2.8048363E-1,1.2185647E-1,-4.879178E-1,3.1606954E-1,9.350699E-1,-5.7388702E-3,-3.4335084E-2,4.7910674E-3,-3.5252474E-2,2.841754E-2,-3.8550194E-2,1.9368588E-3,4.946653E-2,-2.059E-2,1.000411E-2,-7.696616E-3,-3.9976534E-2,-1.8594574E-2,1.9202322E-2,5.1806565E-2,-1.7710092E-2],"categories":[],"categories_nodes":[],"categories_segments":[],"categories_sizes":[],"default_left":[0,0,0,0,0,0,0,0,0,0,0,0,0,0,0,0,0,0,0,0,0,0,0,0,0,0,0,0,0,0,0],"id":41,"left_children":[1,3,5,7,9,11,13,15,17,19,21,23,25,27,29,-1,-1,-1,-1,-1,-1,-1,-1,-1,-1,-1,-1,-1,-1,-1,-1],"loss_changes":[2.8427826E1,1.0643785E1,1.522468E1,5.280159E0,6.1877546E0,1.5481015E1,6.854616E0,5.638098E0,9.835962E0,7.0445147E0,7.430788E0,9.819192E0,5.1517324E0,6.622737E0,3.115162E0,0E0,0E0,0E0,0E0,0E0,0E0,0E0,0E0,0E0,0E0,0E0,0E0,0E0,0E0,0E0,0E0],"parents":[2147483647,0,0,1,1,2,2,3,3,4,4,5,5,6,6,7,7,8,8,9,9,10,10,11,11,12,12,13,13,14,14],"right_children":[2,4,6,8,10,12,14,16,18,20,22,24,26,28,30,-1,-1,-1,-1,-1,-1,-1,-1,-1,-1,-1,-1,-1,-1,-1,-1],"split_conditions":[7.703355E1,5.561824E-1,2.4045669E-1,6.3929313E-1,2.545524E1,8.268271E-1,8.752546E-1,2.5633582E-1,5.8567894E-1,-3.860424E-1,7.6911837E-1,1.1735922E-1,4.6822655E-1,3.3935125E0,9.2142594E-1,-5.7388702E-3,-3.4335084E-2,4.7910674E-3,-3.5252474E-2,2.841754E-2,-3.8550194E-2,1.9368588E-3,4.946653E-2,-2.059E-2,1.000411E-2,-7.696616E-3,-3.9976534E-2,-1.8594574E-2,1.9202322E-2,5.1806565E-2,-1.7710092E-2],"split_indices":[0,4,4,10,0,15,11,11,15,14,13,10,17,1,9,0,0,0,0,0,0,0,0,0,0,0,0,0,0,0,0],"split_type":[0,0,0,0,0,0,0,0,0,0,0,0,0,0,0,0,0,0,0,0,0,0,0,0,0,0,0,0,0,0,0],"sum_hessian":[6.6478577E2,2.25208E2,4.3957776E2,1.6497551E2,6.0232483E1,2.819241E2,1.5765366E2,9.956366E1,6.541185E1,1.7645554E1,4.258693E1,2.3224097E2,4.968313E1,1.3756192E2,2.009175E1,2.2722134E1,7.684153E1,4.2635307E1,2.2776545E1,4.6266713E0,1.3018882E1,3.254304E1,1.0043889E1,2.9145548E1,2.0309543E2,2.470181E1,2.498132E1,1.1968071E1,1.2559384E2,1.881338E1,1.2783693E0],"tree_param":{"num_deleted":"0","num_feature":"25","num_nodes":"31","size_leaf_vector":"1"}},{"base_weights":[2.6219275E-3,3.718435E-1,-1.02208585E-1,5.6477296E-1,-8.133474E-3,-2.3957898E-1,2.0519616E-1,2.818704E-1,8.9019835E-1,-3.6286893E-1,6.8825877E-1,-1.6069005E-1,-6.502562E-1,8.4319466E-1,1.0431767E-1,4.072155E-3,5.845241E-2,-1.4294675E-4,4.7678854E-2,2.6048793E-2,-3.329782E-2,-1.1481966E-2,5.4329485E-2,-1.1597777E-2,8.616898E-3,-3.9274465E-2,3.8382437E-3,-1.42815085E-2,4.848527E-2,-2.7926836E-2,9.9862255E-3],"categories":[],"categories_nodes":[],"categories_segments":[],"categories_sizes":[],"default_left":[0,0,0,0,0,0,0,0,0,0,0,0,0,0,0,0,0,0,0,0,0,0,0,0,0,0,0,0,0,0,0],"id":42,"left_children":[1,3,5,7,9,11,13,15,17,19,21,23,25,27,29,-1,-1,-1,-1,-1,-1,-1,-1,-1,-1,-1,-1,-1,-1,-1,-1],"loss_changes":[2.5580824E1,1.0718622E1,2.1787231E1,8.674372E0,1.26515045E1,1.1437132E1,1.0179361E1,9.386787E0,2.5283546E0,9.432133E0,6.5703316E0,7.1639977E0,5.671999E0,3.3672352E0,8.895043E0,0E0,0E0,0E0,0E0,0E0,0E0,0E0,0E0,0E0,0E0,0E0,0E0,0E0,0E0,0E0,0E0],"parents":[2147483647,0,0,1,1,2,2,3,3,4,4,5,5,6,6,7,7,8,8,9,9,10,10,11,11,12,12,13,13,14,14],"right_children":[2,4,6,8,10,12,14,16,18,20,22,24,26,28,30,-1,-1,-1,-1,-1,-1,-1,-1,-1,-1,-1,-1,-1,-1,-1,-1],"split_conditions":[2.2904989E-1,6.0780495E-1,1.4191168E2,1.0244859E2,3.324051E-1,8.5296243E-1,1.2656353E-1,5.15889E-1,-8.513655E-1,5.2373085E-2,2.4694727E-1,6.970524E-1,8.7117565E-1,7.225576E-2,-7.952409E-1,4.072155E-3,5.845241E-2,-1.4294675E-4,4.7678854E-2,2.6048793E-2,-3.329782E-2,-1.1481966E-2,5.4329485E-2,-1.1597777E-2,8.616898E-3,-3.9274465E-2,3.8382437E-3,-1.42815085E-2,4.848527E-2,-2.7926836E-2,9.9862255E-3],"split_indices":[5,16,0,0,4,20,15,16,4,5,7,4,13,8,4,0,0,0,0,0,0,0,0,0,0,0,0,0,0,0,0],"split_type":[0,0,0,0,0,0,0,0,0,0,0,0,0,0,0,0,0,0,0,0,0,0,0,0,0,0,0,0,0,0,0],"sum_hessian":[6.5892426E2,1.4514937E2,5.137749E2,9.594694E1,4.9202423E1,3.552462E2,1.5852872E2,5.232518E1,4.362176E1,3.291485E1,1.6287575E1,2.9916873E2,5.607744E1,2.0639185E1,1.3788953E2,4.3573128E1,8.75205E0,2.953896E0,4.0667862E1,8.221353E0,2.4693497E1,5.057278E0,1.1230296E1,2.4668378E2,5.2484955E1,4.7214634E1,8.862806E0,1.9532294E0,1.8685957E1,1.6738922E1,1.21150604E2],"tree_param":{"num_deleted":"0","num_feature":"25","num_nodes":"31","size_leaf_vector":"1"}},{"base_weights":[2.8090952E-2,-4.0101877E-1,1.2083206E-1,2.3516572E-1,-4.9127215E-1,4.3312296E-1,-7.1026594E-3,6.0460854E-1,-8.113718E-1,6.038693E-2,-5.926587E-1,7.21518E-1,2.5072476E-1,-2.90414E-1,1.2842324E-1,7.648191E-3,6.835696E-2,-7.2816275E-3,-4.8274063E-2,4.4406E-2,-2.0804012E-2,-4.1927394E-2,-1.8846238E-2,2.5140631E-3,4.3379117E-2,-9.822983E-4,3.0650113E-2,-1.9465385E-2,2.8088061E-2,1.0301236E-2,-2.1110345E-2],"categories":[],"categories_nodes":[],"categories_segments":[],"categories_sizes":[],"default_left":[0,0,0,0,0,0,0,0,0,0,0,0,0,0,0,0,0,0,0,0,0,0,0,0,0,0,0,0,0,0,0],"id":43,"left_children":[1,3,5,7,9,11,13,15,17,19,21,23,25,27,29,-1,-1,-1,-1,-1,-1,-1,-1,-1,-1,-1,-1,-1,-1,-1,-1],"loss_changes":[2.6086157E1,6.8051033E0,2.1528492E1,6.348565E0,5.760626E0,8.056114E0,1.4749935E1,3.8447723E0,3.0877686E-1,6.9946294E0,4.2755013E0,5.8521748E0,9.557664E0,1.0693634E1,1.1191849E1,0E0,0E0,0E0,0E0,0E0,0E0,0E0,0E0,0E0,0E0,0E0,0E0,0E0,0E0,0E0,0E0],"parents":[2147483647,0,0,1,1,2,2,3,3,4,4,5,5,6,6,7,7,8,8,9,9,10,10,11,11,12,12,13,13,14,14],"right_children":[2,4,6,8,10,12,14,16,18,20,22,24,26,28,30,-1,-1,-1,-1,-1,-1,-1,-1,-1,-1,-1,-1,-1,-1,-1,-1],"split_conditions":[4.1952133E1,1.2653518E-1,3.0053875E-1,6.649289E-1,5.921329E0,4.1088057E-1,3.0901098E-1,2.8327793E1,2.7796522E-1,3.5564223E-1,4.4950476E-1,1.21016E-1,2.314209E1,1.8564774E2,9.004809E-1,7.648191E-3,6.835696E-2,-7.2816275E-3,-4.8274063E-2,4.4406E-2,-2.0804012E-2,-4.1927394E-2,-1.8846238E-2,2.5140631E-3,4.3379117E-2,-9.822983E-4,3.0650113E-2,-1.9465385E-2,2.8088061E-2,1.0301236E-2,-2.1110345E-2],"split_indices":[0,20,5,15,1,15,10,0,11,5,6,11,1,0,20,0,0,0,0,0,0,0,0,0,0,0,0,0,0,0,0],"split_type":[0,0,0,0,0,0,0,0,0,0,0,0,0,0,0,0,0,0,0,0,0,0,0,0,0,0,0,0,0,0,0],"sum_hessian":[6.5327747E2,1.1550695E2,5.377705E2,1.4151218E1,1.01355736E2,1.5558916E2,3.8218134E2,1.07711315E1,3.3800874E0,1.5798448E1,8.555729E1,5.9134373E1,9.645478E1,1.23295105E2,2.5888623E2,7.518529E0,3.2526026E0,1.0009716E0,2.3791158E0,5.456055E0,1.0342392E1,3.863497E1,4.6922318E1,1.0808466E1,4.832591E1,5.5775112E1,4.067967E1,1.10961365E2,1.2333739E1,2.2745619E2,3.1430044E1],"tree_param":{"num_deleted":"0","num_feature":"25","num_nodes":"31","size_leaf_vector":"1"}},{"base_weights":[1.1898887E-2,-1.2166096E-1,3.4985957E-1,-7.086051E-3,-4.434138E-1,6.052397E-1,9.933855E-2,-4.1110638E-1,8.193124E-2,-4.81154E-1,9.358843E-1,2.6905037E-2,7.640104E-1,1.5901042E-2,9.181958E-1,1.1087281E-2,-2.6982142E-2,1.300066E-2,-5.7394346E-3,-1.4257013E-2,-3.73285E-2,7.199829E-3,6.380316E-2,-2.1356804E-2,4.1377258E-2,4.037446E-2,-1.0134788E-2,-1.3766939E-2,1.2393942E-2,5.8644593E-2,-1.2090757E-2],"categories":[],"categories_nodes":[],"categories_segments":[],"categories_sizes":[],"default_left":[0,0,0,0,0,0,0,0,0,0,0,0,0,0,0,0,0,0,0,0,0,0,0,0,0,0,0,0,0,0,0],"id":44,"left_children":[1,3,5,7,9,11,13,15,17,19,21,23,25,27,29,-1,-1,-1,-1,-1,-1,-1,-1,-1,-1,-1,-1,-1,-1,-1,-1],"loss_changes":[2.9308039E1,1.7155535E1,1.1705904E1,1.2414321E1,6.811714E0,8.323734E0,6.410063E0,5.18896E0,9.941333E0,6.009922E0,7.844882E-1,7.845891E0,3.1589622E0,5.9025135E0,2.847499E0,0E0,0E0,0E0,0E0,0E0,0E0,0E0,0E0,0E0,0E0,0E0,0E0,0E0,0E0,0E0,0E0],"parents":[2147483647,0,0,1,1,2,2,3,3,4,4,5,5,6,6,7,7,8,8,9,9,10,10,11,11,12,